{"learner":{"attributes":{"best_iteration":"43","best_score":"28.856608051000354","scikit_learn":"{\"_estimator_type\": \"regressor\"}"},"feature_names":["Soil_pH","Soil_Moisture","Temperature_C","Rainfall_mm","Fertilizer_Usage_kg","Pesticide_Usage_kg","Crop_Yield_ton","Crop_Type"],"feature_types":["float","float","float","float","float","float","float","float"],"gradient_booster":{"model":{"gbtree_model_param":{"num_parallel_tree":"1","num_trees":"94"},"iteration_indptr":[0,1,2,3,4,5,6,7,8,9,10,11,12,13,14,15,16,17,18,19,20,21,22,23,24,25,26,27,28,29,30,31,32,33,34,35,36,37,38,39,40,41,42,43,44,45,46,47,48,49,50,51,52,53,54,55,56,57,58,59,60,61,62,63,64,65,66,67,68,69,70,71,72,73,74,75,76,77,78,79,80,81,82,83,84,85,86,87,88,89,90,91,92,93,94],"tree_info":[0,0,0,0,0,0,0,0,0,0,0,0,0,0,0,0,0,0,0,0,0,0,0,0,0,0,0,0,0,0,0,0,0,0,0,0,0,0,0,0,0,0,0,0,0,0,0,0,0,0,0,0,0,0,0,0,0,0,0,0,0,0,0,0,0,0,0,0,0,0,0,0,0,0,0,0,0,0,0,0,0,0,0,0,0,0,0,0,0,0,0,0,0,0],"trees":[{"base_weights":[-2.5547082E-2,2.4540358E0,-2.6390672E-1,-1.2192754E-1,5.9801292E0,-1.7047328E0,4.3087077E-1,-6.3258476E0,2.67592E0,6.691232E0,-2.239402E1,-1.8713907E0,1.5750171E1,-2.1753094E0,7.248398E-1,-1.0516463E1,4.975273E0,3.8830574E0,-1.4402396E1,4.3855906E0,1.7268948E1,-2.7840286E-1,2.418659E-2,-1.2132808E1,-1.595156E0,-1.290851E1,2.2342474E1,2.5031128E0,-5.107153E0,5.7477145E0,5.000312E-1,-6.7363677E0,-1.8605528E1,2.2542046E1,1.7632087E-1,-7.34628E0,5.2362046E0,-2.7850819E1,8.463249E-1,5.738663E0,-2.0678892E1,2.7342363E1,1.1615491E1,2.6412528E0,-1.9376028E1,-9.8860985E-1,-6.162307E0,-3.0305672E-3,-1.7009309E-1,3.392867E-1,1.084849E1,3.9662852E0,-2.469557E1,1.1221005E1,-6.22082E0,2.0300524E1,2.8377306E0,-4.9253354E0,7.7671444E-1,-8.878528E-2,1.5175647E-1,-2.1016274E-1,1.7215459E-1,1.132101E-2,2.6597613E-1,-3.0379167E-1,4.5329943E-2,-1.6424263E-1,2.1112044E-1,6.7195415E-2,-5.1799145E-2,-5.651596E-2,-3.0214766E-1,2.3917702E-1,-1.778004E-1,4.0218662E-2,1.9443622E-1,3.3068627E-2,-3.1430912E-1,6.011549E-2,2.852077E-1,1.839772E-2,2.4496467E-1,-1.1507919E-1,1.6496952E-1,-2.2431532E-1,2.2211088E-2,-1.3458337E-2,1.2093817E-1,-1.0078345E-1,1.2297963E-2,2.2240776E-1,1.4455506E-2,-1.9620588E-2,1.01688944E-1,-3.2089704E-1,-1.6754393E-2,2.6020288E-1,2.1285772E-2,-4.060038E-2,-1.3360412E-1,8.410258E-2,2.904214E-1,-1.3398919E-1,5.2988596E-2,-1.0903231E-1,-7.8814775E-3,4.6598166E-2,5.0509106E-3],"categories":[],"categories_nodes":[],"categories_segments":[],"categories_sizes":[],"default_left":[0,0,0,0,0,0,0,0,0,0,0,0,0,0,0,0,0,0,0,0,0,0,0,0,0,0,0,0,0,0,0,0,0,0,0,0,0,0,0,0,0,0,0,0,0,0,0,0,0,0,0,0,0,0,0,0,0,0,0,0,0,0,0,0,0,0,0,0,0,0,0,0,0,0,0,0,0,0,0,0,0,0,0,0,0,0,0,0,0,0,0,0,0,0,0,0,0,0,0,0,0,0,0,0,0,0,0,0,0],"id":0,"left_children":[1,3,5,7,9,11,13,15,17,19,21,23,25,27,29,31,33,35,37,39,41,-1,-1,43,45,47,49,51,53,55,57,59,61,63,65,67,69,71,73,75,77,79,81,83,85,87,89,-1,-1,-1,91,93,95,97,99,101,103,105,107,-1,-1,-1,-1,-1,-1,-1,-1,-1,-1,-1,-1,-1,-1,-1,-1,-1,-1,-1,-1,-1,-1,-1,-1,-1,-1,-1,-1,-1,-1,-1,-1,-1,-1,-1,-1,-1,-1,-1,-1,-1,-1,-1,-1,-1,-1,-1,-1,-1,-1],"loss_changes":[3.7672974E3,5.078175E3,5.8218604E3,5.6407974E3,4.9116006E3,5.533298E3,3.0078955E3,4.835546E3,4.6738804E3,5.55799E3,8.78155E2,5.2954453E3,3.6890889E3,5.471912E3,3.9797637E3,2.137396E3,2.356484E3,3.229406E3,3.0996394E3,6.596256E3,2.0173389E3,0E0,0E0,5.2947534E3,5.05504E3,2.0161493E2,1.629499E3,6.22659E3,4.5249155E3,6.3370073E3,5.0730684E3,2.5755679E3,2.3479785E3,4.9086597E2,3.1994753E3,6.2886655E3,2.939523E3,2.4906006E2,3.8631445E3,4.204011E3,2.6828906E3,1.8045508E2,3.4807148E3,3.5226392E3,2.227498E3,7.559068E3,6.2072153E3,0E0,0E0,0E0,9.319385E2,5.425319E3,1.3079478E3,2.097597E3,3.4939902E3,2.354252E3,5.145981E3,4.0474026E3,3.3875854E3,0E0,0E0,0E0,0E0,0E0,0E0,0E0,0E0,0E0,0E0,0E0,0E0,0E0,0E0,0E0,0E0,0E0,0E0,0E0,0E0,0E0,0E0,0E0,0E0,0E0,0E0,0E0,0E0,0E0,0E0,0E0,0E0,0E0,0E0,0E0,0E0,0E0,0E0,0E0,0E0,0E0,0E0,0E0,0E0,0E0,0E0,0E0,0E0,0E0,0E0],"parents":[2147483647,0,0,1,1,2,2,3,3,4,4,5,5,6,6,7,7,8,8,9,9,10,10,11,11,12,12,13,13,14,14,15,15,16,16,17,17,18,18,19,19,20,20,23,23,24,24,25,25,26,26,27,27,28,28,29,29,30,30,31,31,32,32,33,33,34,34,35,35,36,36,37,37,38,38,39,39,40,40,41,41,42,42,43,43,44,44,45,45,46,46,50,50,51,51,52,52,53,53,54,54,55,55,56,56,57,57,58,58],"right_children":[2,4,6,8,10,12,14,16,18,20,22,24,26,28,30,32,34,36,38,40,42,-1,-1,44,46,48,50,52,54,56,58,60,62,64,66,68,70,72,74,76,78,80,82,84,86,88,90,-1,-1,-1,92,94,96,98,100,102,104,106,108,-1,-1,-1,-1,-1,-1,-1,-1,-1,-1,-1,-1,-1,-1,-1,-1,-1,-1,-1,-1,-1,-1,-1,-1,-1,-1,-1,-1,-1,-1,-1,-1,-1,-1,-1,-1,-1,-1,-1,-1,-1,-1,-1,-1,-1,-1,-1,-1,-1,-1],"split_conditions":[-1.4361882E0,2.9863408E-1,-3.8615346E-1,-6.672869E-1,1.6505797E0,1.6891309E0,-1.3716292E0,4.1258585E-1,1.4843469E0,1.216997E0,1.3309714E0,-1.6638536E0,-4.6134126E-1,-1.6004477E0,-1.2112982E0,-3.758289E-1,-1.432394E0,-1.4437199E0,7.4838525E-1,9.8685294E-1,-4.6134126E-1,-2.7840286E-1,2.418659E-2,-6.9702154E-1,1.324875E0,-1.3556418E0,-5.64124E-1,1.6070073E0,-1.5390505E0,-1.3169004E0,-1.568585E0,-5.324446E-1,-1.4489429E0,-1.6188867E0,-1.6050301E0,8.569667E-1,1.2357261E0,-1.657025E0,8.7325776E-1,1.455086E0,-9.839257E-1,1.2503295E0,-1.5578896E0,-1.7095957E0,1.208881E0,1.253136E0,1.6024266E0,-3.0305672E-3,-1.7009309E-1,3.392867E-1,-7.348062E-1,6.7333746E-1,1.6972928E0,1.8005487E-1,9.3094075E-1,6.8876915E-2,-1.0405921E0,-2.3002826E-1,-2.5416696E-1,-8.878528E-2,1.5175647E-1,-2.1016274E-1,1.7215459E-1,1.132101E-2,2.6597613E-1,-3.0379167E-1,4.5329943E-2,-1.6424263E-1,2.1112044E-1,6.7195415E-2,-5.1799145E-2,-5.651596E-2,-3.0214766E-1,2.3917702E-1,-1.778004E-1,4.0218662E-2,1.9443622E-1,3.3068627E-2,-3.1430912E-1,6.011549E-2,2.852077E-1,1.839772E-2,2.4496467E-1,-1.1507919E-1,1.6496952E-1,-2.2431532E-1,2.2211088E-2,-1.3458337E-2,1.2093817E-1,-1.0078345E-1,1.2297963E-2,2.2240776E-1,1.4455506E-2,-1.9620588E-2,1.01688944E-1,-3.2089704E-1,-1.6754393E-2,2.6020288E-1,2.1285772E-2,-4.060038E-2,-1.3360412E-1,8.410258E-2,2.904214E-1,-1.3398919E-1,5.2988596E-2,-1.0903231E-1,-7.8814775E-3,4.6598166E-2,5.0509106E-3],"split_indices":[6,0,6,3,3,5,0,1,1,5,7,1,7,0,0,1,5,5,3,5,7,0,0,0,1,0,0,5,3,1,1,1,6,5,3,3,5,0,3,1,3,5,6,1,0,1,1,0,0,0,1,6,5,6,1,5,1,5,6,0,0,0,0,0,0,0,0,0,0,0,0,0,0,0,0,0,0,0,0,0,0,0,0,0,0,0,0,0,0,0,0,0,0,0,0,0,0,0,0,0,0,0,0,0,0,0,0,0,0],"split_type":[0,0,0,0,0,0,0,0,0,0,0,0,0,0,0,0,0,0,0,0,0,0,0,0,0,0,0,0,0,0,0,0,0,0,0,0,0,0,0,0,0,0,0,0,0,0,0,0,0,0,0,0,0,0,0,0,0,0,0,0,0,0,0,0,0,0,0,0,0,0,0,0,0,0,0,0,0,0,0,0,0,0,0,0,0,0,0,0,0,0,0,0,0,0,0,0,0,0,0,0,0,0,0,0,0,0,0,0,0],"sum_hessian":[6.372E3,5.58E2,5.814E3,3.23E2,2.35E2,1.891E3,3.923E3,1E2,2.23E2,2.3E2,5E0,1.874E3,1.7E1,3.97E2,3.526E3,7.3E1,2.7E1,2.09E2,1.4E1,1.9E2,4E1,4E0,1E0,4.8E1,1.826E3,3E0,1.4E1,1.53E2,2.44E2,1.5E2,3.376E3,5.1E1,2.2E1,5E0,2.2E1,2.2E1,1.87E2,7E0,7E0,1.81E2,9E0,1.3E1,2.7E1,1.6E1,3.2E1,1.613E3,2.13E2,1E0,2E0,6E0,8E0,1.46E2,7E0,1.5E1,2.29E2,2.4E1,1.26E2,1.63E2,3.213E3,4.7E1,4E0,2.1E1,1E0,1E0,4E0,2E0,2E1,1.7E1,5E0,1.64E2,2.3E1,1E0,6E0,3E0,4E0,1.62E2,1.9E1,3E0,6E0,1E0,1.2E1,1.6E1,1.1E1,8E0,8E0,2.8E1,4E0,1.571E3,4.2E1,1.39E2,7.4E1,3E0,5E0,7.5E1,7.1E1,5E0,2E0,5E0,1E1,1.77E2,5.2E1,1.1E1,1.3E1,1.6E1,1.1E2,6.6E1,9.7E1,2.09E2,3.004E3],"tree_param":{"num_deleted":"0","num_feature":"8","num_nodes":"109","size_leaf_vector":"1"}},{"base_weights":[-9.921797E-2,9.808367E0,-1.8471985E-1,1.3611077E1,-1.4233946E1,2.0628116E0,-5.22161E-1,2.8205246E1,9.028263E0,1.7222857E1,-2.7590023E1,-2.023694E-2,6.85721E0,-7.435512E-1,5.4246225E0,3.109521E-1,1.0133607E-1,1.606565E1,1.1453145E0,2.9266147E-2,2.290767E-1,-1.0621246E1,-3.3419096E-1,-5.2458863E0,2.532498E0,1.2475293E0,1.3858173E1,-1.28004E0,4.8907778E-1,6.982374E0,-1.2828561E1,-5.741646E0,2.5821754E1,1.3384156E1,-4.1817117E0,-2.1842024E-1,5.910154E-2,2.6603982E-1,-6.2450976E0,3.752181E0,-5.491056E0,4.0733547E0,-1.8288574E1,1.6564312E1,2.6664069E0,-1.1701703E0,-1.9709948E1,3.408855E0,-3.9851457E-1,-9.575228E-1,1.2332464E1,3.833364E0,-2.3209051E1,-1.2527585E-1,7.482137E-2,2.7361944E-1,2.8996276E-2,1.945333E-1,8.305385E-3,4.7324963E-2,-9.659881E-2,-8.5536614E-2,4.7174428E-2,7.8470364E-2,1.3651015E-2,3.1052092E-1,-7.573824E-2,-7.437992E-3,1.17160104E-1,5.139586E-2,-2.3316847E-1,2.0577154E-1,6.943833E-2,1.2173205E-1,-5.5829152E-2,-2.1820724E-2,4.8571676E-3,-2.3378783E-1,1.13189496E-1,-1.6119136E-1,4.038084E-2,1.5098344E-2,-1.9681977E-2,5.4259256E-2,-9.246334E-2,-2.790235E-2,1.474963E-1,-8.628891E-2,2.3326002E-1,-3.024749E-1,3.296468E-2],"categories":[],"categories_nodes":[],"categories_segments":[],"categories_sizes":[],"default_left":[0,0,0,0,0,0,0,0,0,0,0,0,0,0,0,0,0,0,0,0,0,0,0,0,0,0,0,0,0,0,0,0,0,0,0,0,0,0,0,0,0,0,0,0,0,0,0,0,0,0,0,0,0,0,0,0,0,0,0,0,0,0,0,0,0,0,0,0,0,0,0,0,0,0,0,0,0,0,0,0,0,0,0,0,0,0,0,0,0,0,0],"id":1,"left_children":[1,3,5,7,9,11,13,15,17,19,21,23,25,27,29,-1,-1,31,33,-1,-1,35,-1,37,39,41,43,45,47,49,51,53,55,57,59,-1,-1,-1,61,63,65,67,69,71,73,75,77,79,81,83,85,87,89,-1,-1,-1,-1,-1,-1,-1,-1,-1,-1,-1,-1,-1,-1,-1,-1,-1,-1,-1,-1,-1,-1,-1,-1,-1,-1,-1,-1,-1,-1,-1,-1,-1,-1,-1,-1,-1,-1],"loss_changes":[5.4453857E3,5.222168E3,4.8336636E3,2.955709E3,3.836295E3,8.309294E3,7.29909E3,2.593838E2,2.0896638E3,1.7677252E2,2.38521E2,7.763649E3,9.879552E3,3.5339075E3,5.747925E3,0E0,0E0,4.403344E3,1.2947046E3,0E0,0E0,6.855752E2,0E0,6.2446724E3,3.8470056E3,7.8584883E3,3.347916E3,7.515603E3,4.202297E3,7.8279756E3,2.856312E3,7.218838E2,4.1492285E2,4.4098364E2,7.293851E2,0E0,0E0,0E0,4.7475864E3,3.3127012E3,4.1929497E3,4.5738794E3,2.2402954E3,3.3316074E3,1.8717289E3,6.2041147E3,2.7691016E3,4.709795E3,3.729378E3,4.0185098E3,4.0621016E3,1.901733E3,1.9652847E3,0E0,0E0,0E0,0E0,0E0,0E0,0E0,0E0,0E0,0E0,0E0,0E0,0E0,0E0,0E0,0E0,0E0,0E0,0E0,0E0,0E0,0E0,0E0,0E0,0E0,0E0,0E0,0E0,0E0,0E0,0E0,0E0,0E0,0E0,0E0,0E0,0E0,0E0],"parents":[2147483647,0,0,1,1,2,2,3,3,4,4,5,5,6,6,7,7,8,8,9,9,10,10,11,11,12,12,13,13,14,14,17,17,18,18,21,21,23,23,24,24,25,25,26,26,27,27,28,28,29,29,30,30,31,31,32,32,33,33,34,34,38,38,39,39,40,40,41,41,42,42,43,43,44,44,45,45,46,46,47,47,48,48,49,49,50,50,51,51,52,52],"right_children":[2,4,6,8,10,12,14,16,18,20,22,24,26,28,30,-1,-1,32,34,-1,-1,36,-1,38,40,42,44,46,48,50,52,54,56,58,60,-1,-1,-1,62,64,66,68,70,72,74,76,78,80,82,84,86,88,90,-1,-1,-1,-1,-1,-1,-1,-1,-1,-1,-1,-1,-1,-1,-1,-1,-1,-1,-1,-1,-1,-1,-1,-1,-1,-1,-1,-1,-1,-1,-1,-1,-1,-1,-1,-1,-1,-1],"split_conditions":[-1.7174438E0,1.2996862E0,-1.2986811E0,-1.4172114E0,-8.319391E-1,7.254456E-1,1.5963286E0,9.86389E-1,-6.326526E-1,1.6851528E0,1.4136869E0,-5.6727606E-1,-1.4954398E0,6.972476E-1,1.5165077E0,3.109521E-1,1.0133607E-1,-1.4963682E0,-1.0456399E0,2.9266147E-2,2.290767E-1,-8.2024896E-1,-3.3419096E-1,-1.6441354E0,3.5761106E-1,1.2581481E0,1.3309714E0,6.823394E-1,-4.6134126E-1,-4.676761E-2,-1.05954E0,-4.6134126E-1,1.1868778E0,3.703992E-1,1.0717303E-1,-2.1842024E-1,5.910154E-2,2.6603982E-1,1.2422364E0,-1.5578718E0,-1.6760411E0,-8.911037E-3,7.6939064E-1,8.171327E-1,-3.085782E-1,3.788537E-1,1.3146183E0,-1.2234055E0,-2.1450774E-1,3.08605E-1,-1.2266011E0,-1.1264288E0,1.6891309E0,-1.2527585E-1,7.482137E-2,2.7361944E-1,2.8996276E-2,1.945333E-1,8.305385E-3,4.7324963E-2,-9.659881E-2,-8.5536614E-2,4.7174428E-2,7.8470364E-2,1.3651015E-2,3.1052092E-1,-7.573824E-2,-7.437992E-3,1.17160104E-1,5.139586E-2,-2.3316847E-1,2.0577154E-1,6.943833E-2,1.2173205E-1,-5.5829152E-2,-2.1820724E-2,4.8571676E-3,-2.3378783E-1,1.13189496E-1,-1.6119136E-1,4.038084E-2,1.5098344E-2,-1.9681977E-2,5.4259256E-2,-9.246334E-2,-2.790235E-2,1.474963E-1,-8.628891E-2,2.3326002E-1,-3.024749E-1,3.296468E-2],"split_indices":[4,1,5,2,2,1,4,3,3,1,1,2,5,3,5,0,0,3,5,0,0,2,0,4,1,4,7,3,7,5,3,7,1,2,3,0,0,0,3,5,3,4,1,2,3,4,1,5,4,1,1,3,5,0,0,0,0,0,0,0,0,0,0,0,0,0,0,0,0,0,0,0,0,0,0,0,0,0,0,0,0,0,0,0,0,0,0,0,0,0,0],"split_type":[0,0,0,0,0,0,0,0,0,0,0,0,0,0,0,0,0,0,0,0,0,0,0,0,0,0,0,0,0,0,0,0,0,0,0,0,0,0,0,0,0,0,0,0,0,0,0,0,0,0,0,0,0,0,0,0,0,0,0,0,0,0,0,0,0,0,0,0,0,0,0,0,0,0,0,0,0,0,0,0,0,0,0,0,0,0,0,0,0,0,0],"sum_hessian":[6.425E3,5.4E1,6.371E3,4.7E1,7E0,8.31E2,5.54E3,1E1,3.7E1,2E0,5E0,5.8E2,2.51E2,5.342E3,1.98E2,8E0,2E0,1.9E1,1.8E1,1E0,1E0,2E0,3E0,1.9E2,3.9E2,1.4E2,1.11E2,3.722E3,1.62E3,1.83E2,1.5E1,6E0,1.3E1,5E0,1.3E1,1E0,1E0,5E0,1.85E2,3.39E2,5.1E1,1.23E2,1.7E1,8.9E1,2.2E1,3.701E3,2.1E1,3.77E2,1.243E3,7.4E1,1.09E2,6E0,9E0,4E0,2E0,1.2E1,1E0,3E0,2E0,5E0,8E0,1.53E2,3.2E1,1.24E2,2.15E2,2E0,4.9E1,7.6E1,4.7E1,3E0,1.4E1,6.2E1,2.7E1,1E1,1.2E1,2.297E3,1.404E3,1.9E1,2E0,1.1E1,3.66E2,5.61E2,6.82E2,4.2E1,3.2E1,1.5E1,9.4E1,4E0,2E0,7E0,2E0],"tree_param":{"num_deleted":"0","num_feature":"8","num_nodes":"91","size_leaf_vector":"1"}},{"base_weights":[3.926837E-2,8.910607E0,-6.4759254E-2,1.2826775E1,-2.0798021E1,-1.3734812E0,5.891507E-1,1.8242624E1,3.79306E0,5.3983357E-2,-2.9053886E1,-1.1669376E0,-1.5140946E1,-6.6846013E-1,1.590052E0,-1.1956282E0,2.2279781E1,-8.7849E0,1.2203341E1,-5.3081397E-2,-3.212682E-1,2.0845046E0,-1.6405364E0,-1.8343056E1,-3.6419988E0,-2.0354757E0,2.0820832E0,6.037383E0,1.2061735E0,1.5792318E1,-1.454686E1,2.4984694E1,1.0365734E1,1.889377E1,-1.7035023E1,2.6525375E-1,6.857842E0,2.4004622E1,6.6761154E-1,-2.4908E0,7.750214E-1,-2.3185863E1,-9.244541E0,2.375052E-1,-1.0948148E1,3.607725E-1,-2.982049E0,3.1925716E0,-1.0109261E1,7.181629E0,-2.424857E1,8.203373E-1,7.9944754E0,-3.5234507E-2,2.3405391E-1,8.996082E-2,-2.2681615E-1,3.1756237E-1,1.22482434E-1,1.6246565E-1,-4.8511747E-2,4.8704356E-2,2.347022E-1,-2.6277822E-1,-4.3852184E-2,-2.1935297E-2,1.4929523E-1,1.2314396E-1,3.4155548E-1,4.8712924E-2,-1.5019672E-2,-1.4799919E-2,-5.421659E-2,-1.7113921E-3,1.523434E-1,-2.6325342E-1,-1.8528232E-2,-2.3390886E-1,1.597339E-3,-1.8332635E-1,-8.26622E-3,-1.6029252E-2,1.0009606E-1,1.733311E-2,-3.9198592E-2,5.9070317E-3,7.256795E-2,-1.4546396E-1,1.2706652E-1,4.191734E-2,1.6327858E-1,-3.5222624E-3,-3.3736664E-1,6.1068875E-3,6.241096E-2,1.0855186E-1,-2.3254948E-2],"categories":[],"categories_nodes":[],"categories_segments":[],"categories_sizes":[],"default_left":[0,0,0,0,0,0,0,0,0,0,0,0,0,0,0,0,0,0,0,0,0,0,0,0,0,0,0,0,0,0,0,0,0,0,0,0,0,0,0,0,0,0,0,0,0,0,0,0,0,0,0,0,0,0,0,0,0,0,0,0,0,0,0,0,0,0,0,0,0,0,0,0,0,0,0,0,0,0,0,0,0,0,0,0,0,0,0,0,0,0,0,0,0,0,0,0,0],"id":2,"left_children":[1,3,5,7,9,11,13,15,17,-1,19,21,23,25,27,29,31,33,35,-1,-1,37,39,41,43,45,47,49,51,53,55,57,59,61,63,-1,65,67,69,71,73,75,77,-1,79,81,83,85,87,89,91,93,95,-1,-1,-1,-1,-1,-1,-1,-1,-1,-1,-1,-1,-1,-1,-1,-1,-1,-1,-1,-1,-1,-1,-1,-1,-1,-1,-1,-1,-1,-1,-1,-1,-1,-1,-1,-1,-1,-1,-1,-1,-1,-1,-1,-1],"loss_changes":[5.892143E3,8.876226E3,5.401677E3,3.15987E3,2.1033052E3,5.9623843E3,5.299117E3,3.244124E3,2.8575935E3,0E0,3.4025E2,3.195589E3,1.0746421E3,7.0204653E3,3.9944766E3,2.0442089E3,8.3671484E2,2.833733E3,1.0430281E3,0E0,0E0,8.183408E3,3.7194185E3,8.431538E2,1.8610947E3,2.8295518E3,8.426048E3,6.619896E3,5.648236E3,6.706772E2,1.161626E3,1.9396699E3,7.9471967E2,7.822107E1,9.3704224E2,0E0,9.825255E2,1.4780615E3,2.2782505E3,3.9588115E3,6.459963E3,9.5584375E2,1.3340975E3,0E0,5.0804193E2,6.7234214E3,3.9601636E3,6.0126455E3,5.449175E3,4.8538857E3,1.5752314E3,2.3191016E3,3.4498486E3,0E0,0E0,0E0,0E0,0E0,0E0,0E0,0E0,0E0,0E0,0E0,0E0,0E0,0E0,0E0,0E0,0E0,0E0,0E0,0E0,0E0,0E0,0E0,0E0,0E0,0E0,0E0,0E0,0E0,0E0,0E0,0E0,0E0,0E0,0E0,0E0,0E0,0E0,0E0,0E0,0E0,0E0,0E0,0E0],"parents":[2147483647,0,0,1,1,2,2,3,3,4,4,5,5,6,6,7,7,8,8,10,10,11,11,12,12,13,13,14,14,15,15,16,16,17,17,18,18,21,21,22,22,23,23,24,24,25,25,26,26,27,27,28,28,29,29,30,30,31,31,32,32,33,33,34,34,36,36,37,37,38,38,39,39,40,40,41,41,42,42,44,44,45,45,46,46,47,47,48,48,49,49,50,50,51,51,52,52],"right_children":[2,4,6,8,10,12,14,16,18,-1,20,22,24,26,28,30,32,34,36,-1,-1,38,40,42,44,46,48,50,52,54,56,58,60,62,64,-1,66,68,70,72,74,76,78,-1,80,82,84,86,88,90,92,94,96,-1,-1,-1,-1,-1,-1,-1,-1,-1,-1,-1,-1,-1,-1,-1,-1,-1,-1,-1,-1,-1,-1,-1,-1,-1,-1,-1,-1,-1,-1,-1,-1,-1,-1,-1,-1,-1,-1,-1,-1,-1,-1,-1,-1],"split_conditions":[-1.7030743E0,1.395168E0,-5.7906276E-1,-6.758885E-2,-8.576967E-1,-5.9432566E-1,-1.5696375E-1,-1.5788585E0,4.3481505E-1,5.3983357E-2,-2.3204994E-1,-1.5888258E0,1.06276E0,6.3588506E-1,-3.9964595E-1,-1.1641366E-1,1.3309714E0,-1.4569325E0,1.3220453E-1,-5.3081397E-2,-3.212682E-1,-1.4642061E0,1.3309714E0,1.7108597E-1,1.0898908E0,-7.841315E-1,1.6505797E0,1.6424292E0,1.5707955E0,-1.2902453E0,-1.3798785E0,5.8999676E-1,-5.7050526E-1,-1.0867712E0,7.586538E-1,2.6525375E-1,8.4459627E-1,-6.758885E-2,-6.229415E-1,8.5493326E-1,1.5107316E0,1.5041498E0,-1.1716428E0,2.375052E-1,2.5588775E-1,-9.422018E-1,-1.3340718E0,3.7381655E-1,1.4694093E0,7.586538E-1,6.972476E-1,1.6024266E0,1.2581481E0,-3.5234507E-2,2.3405391E-1,8.996082E-2,-2.2681615E-1,3.1756237E-1,1.22482434E-1,1.6246565E-1,-4.8511747E-2,4.8704356E-2,2.347022E-1,-2.6277822E-1,-4.3852184E-2,-2.1935297E-2,1.4929523E-1,1.2314396E-1,3.4155548E-1,4.8712924E-2,-1.5019672E-2,-1.4799919E-2,-5.421659E-2,-1.7113921E-3,1.523434E-1,-2.6325342E-1,-1.8528232E-2,-2.3390886E-1,1.597339E-3,-1.8332635E-1,-8.26622E-3,-1.6029252E-2,1.0009606E-1,1.733311E-2,-3.9198592E-2,5.9070317E-3,7.256795E-2,-1.4546396E-1,1.2706652E-1,4.191734E-2,1.6327858E-1,-3.5222624E-3,-3.3736664E-1,6.1068875E-3,6.241096E-2,1.0855186E-1,-2.3254948E-2],"split_indices":[4,1,2,3,2,2,4,3,7,0,0,2,4,3,2,0,7,2,3,0,0,4,7,3,4,1,3,0,0,2,1,2,1,0,0,0,3,3,1,0,1,0,1,0,3,1,3,0,1,0,3,1,4,0,0,0,0,0,0,0,0,0,0,0,0,0,0,0,0,0,0,0,0,0,0,0,0,0,0,0,0,0,0,0,0,0,0,0,0,0,0,0,0,0,0,0,0],"split_type":[0,0,0,0,0,0,0,0,0,0,0,0,0,0,0,0,0,0,0,0,0,0,0,0,0,0,0,0,0,0,0,0,0,0,0,0,0,0,0,0,0,0,0,0,0,0,0,0,0,0,0,0,0,0,0,0,0,0,0,0,0,0,0,0,0,0,0,0,0,0,0,0,0,0,0,0,0,0,0,0,0,0,0,0,0,0,0,0,0,0,0,0,0,0,0,0,0],"sum_hessian":[6.383E3,7.3E1,6.31E3,6.5E1,8E0,2.102E3,4.208E3,4E1,2.5E1,2E0,6E0,2.072E3,3E1,1.865E3,2.343E3,7E0,3.3E1,1E1,1.5E1,1E0,5E0,2.63E2,1.809E3,2.3E1,7E0,1.246E3,6.19E2,1.85E2,2.158E3,3E0,4E0,2.6E1,7E0,2E0,8E0,3E0,1.2E1,1.5E1,2.48E2,1.338E3,4.71E2,1.4E1,9E0,1E0,6E0,3.53E2,8.93E2,5.68E2,5.1E1,1.79E2,6E0,2.043E3,1.15E2,1E0,2E0,1E0,3E0,1.6E1,1E1,5E0,2E0,1E0,1E0,4E0,4E0,6E0,6E0,8E0,7E0,8.4E1,1.64E2,9.96E2,3.42E2,4.43E2,2.8E1,1.2E1,2E0,3E0,6E0,3E0,3E0,2.94E2,5.9E1,1.48E2,7.45E2,3.47E2,2.21E2,4.3E1,8E0,1.36E2,4.3E1,2E0,4E0,1.968E3,7.5E1,9E1,2.5E1],"tree_param":{"num_deleted":"0","num_feature":"8","num_nodes":"97","size_leaf_vector":"1"}},{"base_weights":[-1.3218045E-1,1.3823549E1,-2.4215119E-1,1.7392326E1,-7.0865746E0,-3.2368785E-1,9.825183E0,1.906085E1,6.088367E0,-2.9008055E-1,5.055262E0,2.0436246E0,-6.76198E-1,2.6690794E1,3.951385E0,8.298701E0,2.0876148E1,-5.5957273E-2,1.188115E1,1.4780117E1,-2.1784505E-1,2.7786133E0,-4.147012E0,-1.6060332E0,3.0479276E-1,8.548101E0,3.3804423E-1,9.555294E0,-6.738116E0,-7.09711E0,2.1619838E-1,8.559435E0,2.4788073E1,1.3641815E1,2.4192447E-2,2.2865531E-1,7.0423804E-2,1.2420619E0,6.050819E0,2.1440996E1,-5.9687324E0,-5.10134E-1,-4.310694E0,4.932087E0,-7.843483E-2,1.8096538E-1,-1.4822821E-1,4.3810973E0,3.0410698E-1,2.1728145E-1,-1.0599224E1,2.3222312E-2,-1.1010967E-1,-1.0806738E-1,2.621372E-1,1.17564894E-1,2.6912802E-1,3.92737E-2,1.557084E-1,-1.8785302E-2,4.1522194E-2,1.4682378E-2,1.2025398E-1,2.6533148E-1,-2.0098839E-2,-1.7024007E-1,1.8240863E-2,-1.1730164E-2,2.8177537E-2,-9.0249985E-2,-2.9611915E-2,1.8837929E-1,4.0419202E-2,4.10204E-2,-3.8415592E-3,-6.2081005E-2,1.7708944E-1,-1.8663448E-1,-1.0208261E-2],"categories":[],"categories_nodes":[],"categories_segments":[],"categories_sizes":[],"default_left":[0,0,0,0,0,0,0,0,0,0,0,0,0,0,0,0,0,0,0,0,0,0,0,0,0,0,0,0,0,0,0,0,0,0,0,0,0,0,0,0,0,0,0,0,0,0,0,0,0,0,0,0,0,0,0,0,0,0,0,0,0,0,0,0,0,0,0,0,0,0,0,0,0,0,0,0,0,0,0],"id":3,"left_children":[1,3,5,7,9,11,13,15,17,-1,19,21,23,25,27,29,31,-1,33,35,-1,37,39,41,43,45,-1,47,49,51,-1,53,55,57,-1,-1,-1,59,61,63,65,67,69,71,73,-1,-1,75,-1,-1,77,-1,-1,-1,-1,-1,-1,-1,-1,-1,-1,-1,-1,-1,-1,-1,-1,-1,-1,-1,-1,-1,-1,-1,-1,-1,-1,-1,-1],"loss_changes":[9.814823E3,3.8544307E3,5.2106973E3,6.949707E2,2.2759797E3,5.253736E3,4.9468584E3,5.4960547E2,5.4026764E2,0E0,1.8880546E3,3.7243623E3,4.998213E3,1.3888223E3,2.4006013E3,1.5890664E3,1.2814717E3,0E0,5.0293335E1,1.5178625E2,0E0,3.6628608E3,4.18341E3,8.335633E3,4.729796E3,1.3840206E3,0E0,2.672427E3,1.76906E3,1.7303386E2,0E0,3.3603484E3,3.204375E2,1.3805176E1,0E0,0E0,0E0,4.530344E3,6.3616494E3,7.698213E2,7.0954976E3,4.42192E3,5.132828E3,2.4490767E3,3.1507139E3,0E0,0E0,3.2148257E3,0E0,0E0,9.8509827E2,0E0,0E0,0E0,0E0,0E0,0E0,0E0,0E0,0E0,0E0,0E0,0E0,0E0,0E0,0E0,0E0,0E0,0E0,0E0,0E0,0E0,0E0,0E0,0E0,0E0,0E0,0E0,0E0],"parents":[2147483647,0,0,1,1,2,2,3,3,4,4,5,5,6,6,7,7,8,8,10,10,11,11,12,12,13,13,14,14,15,15,16,16,18,18,19,19,21,21,22,22,23,23,24,24,25,25,27,27,28,28,29,29,31,31,32,32,33,33,37,37,38,38,39,39,40,40,41,41,42,42,43,43,44,44,47,47,50,50],"right_children":[2,4,6,8,10,12,14,16,18,-1,20,22,24,26,28,30,32,-1,34,36,-1,38,40,42,44,46,-1,48,50,52,-1,54,56,58,-1,-1,-1,60,62,64,66,68,70,72,74,-1,-1,76,-1,-1,78,-1,-1,-1,-1,-1,-1,-1,-1,-1,-1,-1,-1,-1,-1,-1,-1,-1,-1,-1,-1,-1,-1,-1,-1,-1,-1,-1,-1],"split_conditions":[-1.7174438E0,1.395168E0,1.6891309E0,1.3309714E0,8.748895E-2,-1.2986811E0,-7.284878E-1,-1.2746143E0,-1.783415E-1,-2.9008055E-1,1.6851528E0,1.401873E0,2.5398819E-2,-7.1806884E-1,8.0562514E-1,3.4624144E-1,-4.6134126E-1,-5.5957273E-2,-5.7050526E-1,2.1709739E-1,-2.1784505E-1,6.2175626E-1,-1.5446543E0,6.981348E-1,1.5495011E-1,-1.2131916E0,3.3804423E-1,4.3508863E-1,-1.2584642E0,-1.3169004E0,2.1619838E-1,-1.729331E0,-1.2899098E0,-8.595207E-1,2.4192447E-2,2.2865531E-1,7.0423804E-2,-8.4186055E-2,8.605736E-2,7.3136616E-1,-4.332159E-2,1.2133732E0,-9.3864256E-1,-1.5469682E0,-1.5203948E0,1.8096538E-1,-1.4822821E-1,-1.5830505E-1,3.0410698E-1,2.1728145E-1,1.1013825E0,2.3222312E-2,-1.1010967E-1,-1.0806738E-1,2.621372E-1,1.17564894E-1,2.6912802E-1,3.92737E-2,1.557084E-1,-1.8785302E-2,4.1522194E-2,1.4682378E-2,1.2025398E-1,2.6533148E-1,-2.0098839E-2,-1.7024007E-1,1.8240863E-2,-1.1730164E-2,2.8177537E-2,-9.0249985E-2,-2.9611915E-2,1.8837929E-1,4.0419202E-2,4.10204E-2,-3.8415592E-3,-6.2081005E-2,1.7708944E-1,-1.8663448E-1,-1.0208261E-2],"split_indices":[4,1,5,7,0,5,6,1,5,0,1,4,0,4,4,0,7,0,1,0,0,1,6,1,0,6,0,4,0,1,0,4,6,1,0,0,0,6,4,0,6,4,4,4,6,0,0,0,0,0,0,0,0,0,0,0,0,0,0,0,0,0,0,0,0,0,0,0,0,0,0,0,0,0,0,0,0,0,0],"split_type":[0,0,0,0,0,0,0,0,0,0,0,0,0,0,0,0,0,0,0,0,0,0,0,0,0,0,0,0,0,0,0,0,0,0,0,0,0,0,0,0,0,0,0,0,0,0,0,0,0,0,0,0,0,0,0,0,0,0,0,0,0,0,0,0,0,0,0,0,0,0,0,0,0,0,0,0,0,0,0],"sum_hessian":[6.392E3,4.9E1,6.343E3,4.2E1,7E0,6.293E3,5E1,3.6E1,6E0,2E0,5E0,8.15E2,5.478E3,1.2E1,3.8E1,6E0,3E1,2E0,4E0,4E0,1E0,7.29E2,8.6E1,2.812E3,2.666E3,4E0,8E0,2.5E1,1.3E1,3E0,3E0,8E0,2.2E1,3E0,1E0,1E0,3E0,4.97E2,2.32E2,5E0,8.1E1,2.002E3,8.1E2,2.03E2,2.463E3,3E0,1E0,2.1E1,4E0,1E0,1.2E1,1E0,2E0,4E0,4E0,4E0,1.8E1,1E0,2E0,2.4E2,2.57E2,1.32E2,1E2,4E0,1E0,3.3E1,4.8E1,1.67E3,3.32E2,1.79E2,6.31E2,1.1E1,1.92E2,1.67E2,2.296E3,1.2E1,9E0,6E0,6E0],"tree_param":{"num_deleted":"0","num_feature":"8","num_nodes":"79","size_leaf_vector":"1"}},{"base_weights":[-9.639486E-2,1.0061058E1,-1.7615864E-1,2.7629229E1,4.978284E0,-1.907439E0,3.280585E-1,4.711519E-2,2.9449847E-1,1.3236356E1,-1.7010018E0,-2.8664224E0,2.1154063E0,-8.428159E-1,9.11795E-1,2.0106396E1,-8.647025E0,1.0388132E1,-1.1799422E1,-5.1561556E0,-5.914101E-1,2.5082277E1,9.807469E-1,-4.71577E-1,-1.0966947E1,4.4009237E0,5.947198E-1,-6.3469696E-1,2.3616135E1,-1.4844733E-1,8.071903E-2,-1.141506E1,2.4477821E1,-6.788733E-1,-2.9456526E1,-4.507552E0,-2.4001518E1,-8.51774E0,1.0277612E0,2.8262352E1,-6.539301E-2,-5.032527E-1,1.3559717E1,-1.0492115E0,4.97725E0,3.7239495E-1,-1.8429153E1,1.4931612E0,1.5693763E1,-4.130727E0,8.329227E-1,3.9077338E-2,-4.8597794E-2,6.264861E-2,2.8703797E-1,-1.0985069E-2,-1.7926592E-1,2.790675E-1,1.0603667E-1,-2.0453303E-1,1.2617224E-1,-8.005058E-2,-3.281813E-1,1.2647029E-2,-5.7498902E-2,1.2325049E-1,-2.9000235E-1,3.7096634E-3,-1.5073821E-1,1.6602306E-1,1.4522666E-3,1.0208663E-1,3.314595E-1,-3.781469E-2,5.551829E-2,2.4071091E-1,-4.873417E-2,1.9213706E-4,-3.798922E-2,-1.0481563E-1,7.0015565E-2,-2.434161E-1,5.0620914E-2,-2.2896695E-1,6.980087E-2,2.5393862E-2,-2.6418447E-1,2.13989E-1,1.3467475E-2,-1.8045658E-1,-2.264955E-2,2.8179318E-2,2.399127E-3],"categories":[],"categories_nodes":[],"categories_segments":[],"categories_sizes":[],"default_left":[0,0,0,0,0,0,0,0,0,0,0,0,0,0,0,0,0,0,0,0,0,0,0,0,0,0,0,0,0,0,0,0,0,0,0,0,0,0,0,0,0,0,0,0,0,0,0,0,0,0,0,0,0,0,0,0,0,0,0,0,0,0,0,0,0,0,0,0,0,0,0,0,0,0,0,0,0,0,0,0,0,0,0,0,0,0,0,0,0,0,0,0,0],"id":4,"left_children":[1,3,5,7,9,11,13,-1,-1,15,17,19,21,23,25,27,29,31,33,35,37,39,41,43,45,47,49,51,53,-1,-1,55,57,59,61,63,65,67,69,71,-1,73,75,77,79,81,83,85,87,89,91,-1,-1,-1,-1,-1,-1,-1,-1,-1,-1,-1,-1,-1,-1,-1,-1,-1,-1,-1,-1,-1,-1,-1,-1,-1,-1,-1,-1,-1,-1,-1,-1,-1,-1,-1,-1,-1,-1,-1,-1,-1,-1],"loss_changes":[5.199185E3,4.327205E3,5.55777E3,3.2021484E2,2.228836E3,5.545925E3,3.371019E3,0E0,0E0,2.8799746E3,2.9304404E3,6.039588E3,7.1939033E3,6.162479E3,3.6382688E3,1.0341313E3,6.379204E2,3.658618E3,2.5326396E3,6.9568037E3,7.491027E3,1.492083E3,4.953629E3,4.990752E3,4.914621E3,8.973877E3,3.400546E3,7.656716E1,8.795039E2,0E0,0E0,3.1619037E2,3.7101074E1,2.624369E3,9.78457E1,4.023085E3,3.8075684E3,5.7748257E3,6.6639497E3,7.196279E2,0E0,4.745262E3,5.5425205E3,4.2100264E3,4.8299814E3,2.9048477E3,4.132912E3,6.4622866E3,4.554878E3,3.7236301E3,3.3823965E3,0E0,0E0,0E0,0E0,0E0,0E0,0E0,0E0,0E0,0E0,0E0,0E0,0E0,0E0,0E0,0E0,0E0,0E0,0E0,0E0,0E0,0E0,0E0,0E0,0E0,0E0,0E0,0E0,0E0,0E0,0E0,0E0,0E0,0E0,0E0,0E0,0E0,0E0,0E0,0E0,0E0,0E0],"parents":[2147483647,0,0,1,1,2,2,3,3,4,4,5,5,6,6,9,9,10,10,11,11,12,12,13,13,14,14,15,15,16,16,17,17,18,18,19,19,20,20,21,21,22,22,23,23,24,24,25,25,26,26,27,27,28,28,31,31,32,32,33,33,34,34,35,35,36,36,37,37,38,38,39,39,41,41,42,42,43,43,44,44,45,45,46,46,47,47,48,48,49,49,50,50],"right_children":[2,4,6,8,10,12,14,-1,-1,16,18,20,22,24,26,28,30,32,34,36,38,40,42,44,46,48,50,52,54,-1,-1,56,58,60,62,64,66,68,70,72,-1,74,76,78,80,82,84,86,88,90,92,-1,-1,-1,-1,-1,-1,-1,-1,-1,-1,-1,-1,-1,-1,-1,-1,-1,-1,-1,-1,-1,-1,-1,-1,-1,-1,-1,-1,-1,-1,-1,-1,-1,-1,-1,-1,-1,-1,-1,-1,-1,-1],"split_conditions":[-1.7174438E0,-1.4172114E0,-9.2653286E-1,-1.0867712E0,-6.674317E-2,1.1343056E0,-5.7906276E-1,4.711519E-2,2.9449847E-1,-4.241037E-1,-3.7569103E-1,7.3153E-2,-1.6268034E0,1.5912676E0,-3.899671E-1,-1.0461413E0,-1.2746143E0,5.3514946E-1,1.4136869E0,1.6569538E0,-1.103801E0,1.6701638E0,1.3499886E0,1.4314133E0,-1.2462261E0,8.796808E-1,-2.9845667E-1,-1.5289229E0,-2.0709005E-1,-1.4844733E-1,8.071903E-2,-6.0899776E-1,6.564317E-1,-2.3695655E-1,-1.511655E0,-1.5773494E0,-1.0420557E0,8.922525E-1,-9.8490644E-1,-1.3107024E0,-6.539301E-2,5.577866E-1,1.6535797E0,-8.9164376E-1,-1.3543024E0,-1.6872905E0,-6.066859E-1,1.5707955E0,5.929535E-1,-1.4538689E0,1.8168409E-1,3.9077338E-2,-4.8597794E-2,6.264861E-2,2.8703797E-1,-1.0985069E-2,-1.7926592E-1,2.790675E-1,1.0603667E-1,-2.0453303E-1,1.2617224E-1,-8.005058E-2,-3.281813E-1,1.2647029E-2,-5.7498902E-2,1.2325049E-1,-2.9000235E-1,3.7096634E-3,-1.5073821E-1,1.6602306E-1,1.4522666E-3,1.0208663E-1,3.314595E-1,-3.781469E-2,5.551829E-2,2.4071091E-1,-4.873417E-2,1.9213706E-4,-3.798922E-2,-1.0481563E-1,7.0015565E-2,-2.434161E-1,5.0620914E-2,-2.2896695E-1,6.980087E-2,2.5393862E-2,-2.6418447E-1,2.13989E-1,1.3467475E-2,-1.8045658E-1,-2.264955E-2,2.8179318E-2,2.399127E-3],"split_indices":[4,2,4,0,1,3,2,0,0,3,2,6,2,6,2,2,1,1,1,1,2,3,2,3,2,6,2,0,0,0,0,0,0,6,6,4,0,6,2,0,0,0,2,2,1,2,2,0,3,3,2,0,0,0,0,0,0,0,0,0,0,0,0,0,0,0,0,0,0,0,0,0,0,0,0,0,0,0,0,0,0,0,0,0,0,0,0,0,0,0,0,0,0],"split_type":[0,0,0,0,0,0,0,0,0,0,0,0,0,0,0,0,0,0,0,0,0,0,0,0,0,0,0,0,0,0,0,0,0,0,0,0,0,0,0,0,0,0,0,0,0,0,0,0,0,0,0,0,0,0,0,0,0,0,0,0,0,0,0,0,0,0,0,0,0,0,0,0,0,0,0,0,0,0,0,0,0,0,0,0,0,0,0,0,0,0,0,0,0],"sum_hessian":[6.414E3,4.9E1,6.365E3,1E1,3.9E1,1.435E3,4.93E3,1E0,9E0,1.7E1,2.2E1,1.159E3,2.76E2,1.64E3,3.29E3,1.3E1,4E0,1E1,1.2E1,5.77E2,5.82E2,1.2E1,2.64E2,1.583E3,5.7E1,2.73E2,3.017E3,2E0,1.1E1,3E0,1E0,4E0,6E0,8E0,4E0,5.59E2,1.8E1,9.8E1,4.84E2,1.1E1,1E0,2.37E2,2.7E1,1.432E3,1.51E2,2.3E1,3.4E1,2.18E2,5.5E1,1.44E2,2.873E3,1E0,1E0,3E0,8E0,2E0,2E0,4E0,2E0,3E0,5E0,1E0,3E0,9.9E1,4.6E2,2E0,1.6E1,4.2E1,5.6E1,2.5E1,4.59E2,3E0,8E0,1.54E2,8.3E1,1.7E1,1E1,1.032E3,4E2,1.7E1,1.34E2,3E0,2E1,2.9E1,5E0,2.11E2,7E0,3.9E1,1.6E1,1.6E1,1.28E2,6.6E2,2.213E3],"tree_param":{"num_deleted":"0","num_feature":"8","num_nodes":"93","size_leaf_vector":"1"}},{"base_weights":[-4.1023377E-2,2.6736696E0,-3.002848E-1,-9.415742E-2,7.8285217E0,-5.893834E-1,1.5287645E0,-5.0377584E0,3.0262227E0,1.5071761E1,4.444008E0,-4.7879982E-1,-7.6648498E0,-8.9764214E-1,5.5919437E0,4.3091526E0,-9.006553E0,2.0082724E1,1.8855753E0,1.1358681E1,2.819347E-1,5.8948483E0,-2.2927773E1,-8.988509E0,-3.9963895E-1,-1.1738434E1,3.9509933E0,-1.0510035E1,-2.4405271E-1,6.5947895E0,-1.390178E1,-5.9592514E0,1.0022914E1,-1.0045033E1,2.791934E-1,1.4088069E1,2.805549E-1,4.1750917E0,-5.0617495E0,-1.0790722E1,1.5215344E1,1.4124591E1,2.4315324E0,2.3684004E-2,-2.7538534E1,-4.9052662E-1,-1.6757887E1,8.506942E0,-5.420915E-1,-2.7828535E1,-6.47177E0,2.741062E-1,-3.1813087E0,4.923224E0,-1.7748936E1,1.2457868E0,-4.8270583E0,1.2753158E1,4.7257986E0,2.428308E-1,-1.8363775E1,9.274226E-2,-1.6026762E-1,1.4385515E-1,-1.2922163E-1,-8.4183164E-2,-3.3584967E-1,2.095999E-1,-1.4598093E-2,1.8384807E-1,2.8987309E-2,-1.8077411E-1,5.517333E-3,6.5145865E-2,-2.2476824E-1,2.5146654E-1,8.398765E-2,7.3325016E-2,2.8229743E-1,-6.1475884E-2,8.860463E-2,-7.906519E-2,-2.9883632E-1,-1.7349073E-1,1.158633E-1,-1.8975398E-1,1.7122447E-1,2.7764589E-2,1.7583163E-1,-4.8004437E-2,-3.937341E-3,-3.0102584E-1,8.670483E-3,1.0993294E-1,-1.0545116E-1,-8.035473E-2,2.2149946E-1,-1.7196414E-1,1.5367639E-1,-5.6796134E-2,-2.7333403E-1,-2.5665638E-1,1.6234392E-2,6.755266E-2,-9.5134676E-2,5.727101E-2,2.3342201E-1,-2.2601234E-2,7.979272E-2,-2.2710776E-1,1.9073622E-1],"categories":[],"categories_nodes":[],"categories_segments":[],"categories_sizes":[],"default_left":[0,0,0,0,0,0,0,0,0,0,0,0,0,0,0,0,0,0,0,0,0,0,0,0,0,0,0,0,0,0,0,0,0,0,0,0,0,0,0,0,0,0,0,0,0,0,0,0,0,0,0,0,0,0,0,0,0,0,0,0,0,0,0,0,0,0,0,0,0,0,0,0,0,0,0,0,0,0,0,0,0,0,0,0,0,0,0,0,0,0,0,0,0,0,0,0,0,0,0,0,0,0,0,0,0,0,0,0,0,0,0],"id":5,"left_children":[1,3,5,7,9,11,13,15,17,19,21,23,25,27,29,31,33,35,37,39,-1,41,43,45,47,49,51,53,55,57,59,61,63,65,-1,67,-1,69,71,73,75,77,79,-1,81,83,85,87,89,91,93,-1,95,97,99,101,103,105,107,-1,109,-1,-1,-1,-1,-1,-1,-1,-1,-1,-1,-1,-1,-1,-1,-1,-1,-1,-1,-1,-1,-1,-1,-1,-1,-1,-1,-1,-1,-1,-1,-1,-1,-1,-1,-1,-1,-1,-1,-1,-1,-1,-1,-1,-1,-1,-1,-1,-1,-1,-1],"loss_changes":[4.5291494E3,8.0049385E3,3.1069292E3,5.6611304E3,4.7379307E3,3.9656008E3,7.911878E3,5.3064375E3,4.3396094E3,2.7005225E3,5.496288E3,3.3618928E3,3.7371914E3,3.1575618E3,5.9564395E3,2.5825908E3,4.115134E3,2.7386816E2,3.3932085E3,4.4353237E3,0E0,3.642439E3,8.816648E2,3.028886E3,6.2862666E3,4.7348867E3,3.6009458E3,3.6624167E3,3.2288025E3,3.2315732E3,3.0016396E3,2.602447E3,2.9886997E3,3.4699658E3,0E0,1.0990353E3,0E0,2.8485828E3,3.882323E3,1.7642799E3,2.699796E3,3.4335366E3,5.1286914E3,0E0,3.9958496E1,4.8837725E3,2.1280269E3,4.0080498E3,3.0772993E3,9.3967285E2,3.3172812E3,0E0,2.2683406E3,2.805562E3,2.3896729E3,3.669918E3,6.36069E3,4.776665E3,5.041037E3,0E0,2.7115425E3,0E0,0E0,0E0,0E0,0E0,0E0,0E0,0E0,0E0,0E0,0E0,0E0,0E0,0E0,0E0,0E0,0E0,0E0,0E0,0E0,0E0,0E0,0E0,0E0,0E0,0E0,0E0,0E0,0E0,0E0,0E0,0E0,0E0,0E0,0E0,0E0,0E0,0E0,0E0,0E0,0E0,0E0,0E0,0E0,0E0,0E0,0E0,0E0,0E0,0E0],"parents":[2147483647,0,0,1,1,2,2,3,3,4,4,5,5,6,6,7,7,8,8,9,9,10,10,11,11,12,12,13,13,14,14,15,15,16,16,17,17,18,18,19,19,21,21,22,22,23,23,24,24,25,25,26,26,27,27,28,28,29,29,30,30,31,31,32,32,33,33,35,35,37,37,38,38,39,39,40,40,41,41,42,42,44,44,45,45,46,46,47,47,48,48,49,49,50,50,52,52,53,53,54,54,55,55,56,56,57,57,58,58,60,60],"right_children":[2,4,6,8,10,12,14,16,18,20,22,24,26,28,30,32,34,36,38,40,-1,42,44,46,48,50,52,54,56,58,60,62,64,66,-1,68,-1,70,72,74,76,78,80,-1,82,84,86,88,90,92,94,-1,96,98,100,102,104,106,108,-1,110,-1,-1,-1,-1,-1,-1,-1,-1,-1,-1,-1,-1,-1,-1,-1,-1,-1,-1,-1,-1,-1,-1,-1,-1,-1,-1,-1,-1,-1,-1,-1,-1,-1,-1,-1,-1,-1,-1,-1,-1,-1,-1,-1,-1,-1,-1,-1,-1,-1,-1],"split_conditions":[-1.4361882E0,5.270969E-1,1.2968887E0,-2.9452887E-1,-4.6134126E-1,1.257642E0,3.8862666E-1,-6.4846087E-1,-1.5746833E0,1.216997E0,1.5575473E0,-1.6955901E0,4.8628134E-1,-1.5429032E0,1.5880883E0,-1.6233118E0,1.5826507E0,-1.4963396E0,5.338729E-1,-1.6716859E0,2.819347E-1,8.6391985E-1,-1.6131686E0,-1.7083371E0,-1.643689E0,-7.9204655E-1,-9.11769E-1,1.4304308E0,-1.3003244E-1,-8.6917484E-1,5.471369E-1,-1.0635169E0,1.0432352E0,4.448593E-1,2.791934E-1,2.4396344E-1,2.805549E-1,-1.4837345E0,-8.2024896E-1,-8.858165E-1,-2.1674389E-1,6.767323E-1,1.208881E0,2.3684004E-2,-1.0332487E0,-5.409482E-1,1.6952271E0,3.0551317E-1,-1.3437951E0,1.216997E0,-3.99307E-1,2.741062E-1,1.5470381E0,-9.7117156E-1,-6.0899776E-1,-1.7001745E0,-8.361544E-1,-1.193461E0,-1.05880514E-1,2.428308E-1,1.6952271E0,9.274226E-2,-1.6026762E-1,1.4385515E-1,-1.2922163E-1,-8.4183164E-2,-3.3584967E-1,2.095999E-1,-1.4598093E-2,1.8384807E-1,2.8987309E-2,-1.8077411E-1,5.517333E-3,6.5145865E-2,-2.2476824E-1,2.5146654E-1,8.398765E-2,7.3325016E-2,2.8229743E-1,-6.1475884E-2,8.860463E-2,-7.906519E-2,-2.9883632E-1,-1.7349073E-1,1.158633E-1,-1.8975398E-1,1.7122447E-1,2.7764589E-2,1.7583163E-1,-4.8004437E-2,-3.937341E-3,-3.0102584E-1,8.670483E-3,1.0993294E-1,-1.0545116E-1,-8.035473E-2,2.2149946E-1,-1.7196414E-1,1.5367639E-1,-5.6796134E-2,-2.7333403E-1,-2.5665638E-1,1.6234392E-2,6.755266E-2,-9.5134676E-2,5.727101E-2,2.3342201E-1,-2.2601234E-2,7.979272E-2,-2.2710776E-1,1.9073622E-1],"split_indices":[6,0,6,3,7,6,0,2,0,5,3,5,3,2,3,6,5,6,5,6,0,0,2,5,5,0,0,6,0,3,0,5,5,0,0,2,0,2,2,3,3,2,0,0,2,6,2,2,6,5,0,0,3,0,0,3,5,3,3,0,2,0,0,0,0,0,0,0,0,0,0,0,0,0,0,0,0,0,0,0,0,0,0,0,0,0,0,0,0,0,0,0,0,0,0,0,0,0,0,0,0,0,0,0,0,0,0,0,0,0,0],"split_type":[0,0,0,0,0,0,0,0,0,0,0,0,0,0,0,0,0,0,0,0,0,0,0,0,0,0,0,0,0,0,0,0,0,0,0,0,0,0,0,0,0,0,0,0,0,0,0,0,0,0,0,0,0,0,0,0,0,0,0,0,0,0,0,0,0,0,0,0,0,0,0,0,0,0,0,0,0,0,0,0,0,0,0,0,0,0,0,0,0,0,0,0,0,0,0,0,0,0,0,0,0,0,0,0,0,0,0,0,0,0,0],"sum_hessian":[6.433E3,5.6E2,5.873E3,3.65E2,1.95E2,5.072E3,8.01E2,1.41E2,2.24E2,6.1E1,1.34E2,4.995E3,7.7E1,5.02E2,2.99E2,4.2E1,9.9E1,1.3E1,2.11E2,4.9E1,1.2E1,1.28E2,6E0,4.5E1,4.95E3,5.7E1,2E1,3.1E1,4.71E2,2.85E2,1.4E1,1.5E1,2.7E1,9.7E1,2E0,9E0,4E0,1.59E2,5.2E1,7E0,4.2E1,3.7E1,9.1E1,1E0,5E0,2.2E1,2.3E1,7.7E1,4.873E3,1.3E1,4.4E1,4E0,1.6E1,1E1,2.1E1,3.56E2,1.15E2,6.5E1,2.2E2,1E0,1.3E1,6E0,9E0,2.3E1,4E0,9.2E1,5E0,6E0,3E0,1.2E1,1.47E2,1.5E1,3.7E1,3E0,4E0,1.6E1,2.6E1,2.6E1,1.1E1,3.9E1,5.2E1,1E0,4E0,9E0,1.3E1,2.2E1,1E0,4.8E1,2.9E1,1.63E2,4.71E3,1.2E1,1E0,8E0,3.6E1,1.4E1,2E0,3E0,7E0,1E1,1.1E1,4E0,3.52E2,3.3E1,8.2E1,4E1,2.5E1,7E1,1.5E2,1.2E1,1E0],"tree_param":{"num_deleted":"0","num_feature":"8","num_nodes":"111","size_leaf_vector":"1"}},{"base_weights":[1.5492073E-1,-1.3947387E-1,2.7813747E0,1.0512888E1,-2.2728467E-1,2.2823615E0,1.3678152E1,-1.8994781E1,1.3699527E1,-1.5263499E0,4.0940496E-1,3.339353E0,-2.6197658E0,-1.3446818E1,1.7471022E1,-2.5722668E0,-2.9085702E-1,1.597013E1,-1.2431387E1,-6.937213E-1,-5.6952753E0,5.13023E0,1.503494E-1,-1.1784914E1,3.9833493E0,-1.1581186E1,1.0433385E0,-2.1087188E-1,4.7371462E-2,2.0802572E1,-1.3894542E-1,-3.518732E-2,-3.3966827E-3,1.7482674E1,-2.1509522E-1,-2.290896E-1,9.500665E-2,-1.1026828E0,5.6417236E0,3.4860675E0,-6.9054723E0,8.566368E0,-2.7837615E0,-7.5804776E-1,1.5200607E0,1.19498415E1,-1.8072495E1,2.5185473E0,7.7560835E0,2.2282916E-1,-1.4581557E1,2.6565317E1,-1.0401103E0,2.4061773E1,4.257098E0,6.333352E-2,2.0616357E-1,-6.9906656E-3,-8.707402E-2,-1.8935484E-1,9.4231926E-2,-5.3523015E-2,1.1266296E-1,-5.8017977E-2,-2.2402483E-1,5.9817996E-2,2.953335E-1,-1.5899195E-1,1.838645E-2,1.0731932E-1,-9.503539E-3,7.703311E-2,8.935264E-3,2.1369521E-1,-1.286444E-1,-2.693108E-1,-4.7402017E-2,4.219936E-2,-2.283399E-2,2.8255848E-2,1.5190811E-1,-2.4647032E-1,4.769111E-3,2.942434E-1,6.1351012E-2,3.7545703E-2,-1.0587867E-1,2.50325E-1,3.2943513E-2,-5.139295E-2,1.2234458E-1],"categories":[],"categories_nodes":[],"categories_segments":[],"categories_sizes":[],"default_left":[0,0,0,0,0,0,0,0,0,0,0,0,0,0,0,0,0,0,0,0,0,0,0,0,0,0,0,0,0,0,0,0,0,0,0,0,0,0,0,0,0,0,0,0,0,0,0,0,0,0,0,0,0,0,0,0,0,0,0,0,0,0,0,0,0,0,0,0,0,0,0,0,0,0,0,0,0,0,0,0,0,0,0,0,0,0,0,0,0,0,0],"id":6,"left_children":[1,3,5,7,9,11,13,15,17,19,21,23,25,27,29,31,-1,33,35,37,39,41,43,45,47,49,51,-1,-1,53,-1,-1,-1,55,-1,-1,-1,57,59,61,63,65,67,69,71,73,75,77,79,-1,81,83,85,87,89,-1,-1,-1,-1,-1,-1,-1,-1,-1,-1,-1,-1,-1,-1,-1,-1,-1,-1,-1,-1,-1,-1,-1,-1,-1,-1,-1,-1,-1,-1,-1,-1,-1,-1,-1,-1],"loss_changes":[4.9404517E3,5.3771543E3,3.4706191E3,4.6796426E3,4.7151025E3,3.2057378E3,3.1156108E3,7.5377515E2,2.7498472E3,6.504487E3,4.6782583E3,4.9948506E3,3.623011E3,6.5562195E2,2.9014414E3,5.1440296E0,0E0,2.643627E3,1.1368291E3,4.0584727E3,3.4907773E3,5.4353667E3,4.5152617E3,3.3498813E3,2.6773047E3,3.5762754E3,4.2283555E3,0E0,0E0,1.1378418E3,0E0,0E0,0E0,1.2320293E3,0E0,0E0,0E0,4.505914E3,9.007539E3,2.6045884E3,4.590634E3,7.355833E3,3.72735E3,4.8315317E3,5.5988203E3,1.44362E3,1.8801309E3,2.8936384E3,4.942417E3,0E0,4.558873E3,1.699414E2,3.4273582E3,3.0056348E2,4.3766852E2,0E0,0E0,0E0,0E0,0E0,0E0,0E0,0E0,0E0,0E0,0E0,0E0,0E0,0E0,0E0,0E0,0E0,0E0,0E0,0E0,0E0,0E0,0E0,0E0,0E0,0E0,0E0,0E0,0E0,0E0,0E0,0E0,0E0,0E0,0E0,0E0],"parents":[2147483647,0,0,1,1,2,2,3,3,4,4,5,5,6,6,7,7,8,8,9,9,10,10,11,11,12,12,13,13,14,14,15,15,17,17,18,18,19,19,20,20,21,21,22,22,23,23,24,24,25,25,26,26,29,29,33,33,37,37,38,38,39,39,40,40,41,41,42,42,43,43,44,44,45,45,46,46,47,47,48,48,50,50,51,51,52,52,53,53,54,54],"right_children":[2,4,6,8,10,12,14,16,18,20,22,24,26,28,30,32,-1,34,36,38,40,42,44,46,48,50,52,-1,-1,54,-1,-1,-1,56,-1,-1,-1,58,60,62,64,66,68,70,72,74,76,78,80,-1,82,84,86,88,90,-1,-1,-1,-1,-1,-1,-1,-1,-1,-1,-1,-1,-1,-1,-1,-1,-1,-1,-1,-1,-1,-1,-1,-1,-1,-1,-1,-1,-1,-1,-1,-1,-1,-1,-1,-1],"split_conditions":[1.398727E0,-1.7174438E0,1.6070073E0,-1.4049588E0,-5.7906276E-1,1.0952141E0,-1.3814542E0,1.2106578E0,1.526485E0,8.5493326E-1,-1.5451269E0,-1.5726486E0,1.2541678E0,1.4541488E0,1.324875E0,-9.7117156E-1,-2.9085702E-1,1.7025388E0,7.7215904E-1,6.797534E-1,-1.5712729E0,7.413633E-1,3.6329353E-1,-1.0809445E0,3.0551317E-1,-1.3609937E0,1.2835279E0,-2.1087188E-1,4.7371462E-2,1.2331864E0,-1.3894542E-1,-3.518732E-2,-3.3966827E-3,-4.6134126E-1,-2.1509522E-1,-2.290896E-1,9.500665E-2,5.730403E-1,-1.333916E0,-4.240478E-1,1.5305566E0,4.470071E-1,-8.4251726E-1,-1.683369E0,-3.899671E-1,1.6669692E0,4.527614E-1,8.586899E-1,4.2649475E-1,2.2282916E-1,1.627286E0,3.08605E-1,6.783881E-1,1.2232783E0,1.6669692E0,6.333352E-2,2.0616357E-1,-6.9906656E-3,-8.707402E-2,-1.8935484E-1,9.4231926E-2,-5.3523015E-2,1.1266296E-1,-5.8017977E-2,-2.2402483E-1,5.9817996E-2,2.953335E-1,-1.5899195E-1,1.838645E-2,1.0731932E-1,-9.503539E-3,7.703311E-2,8.935264E-3,2.1369521E-1,-1.286444E-1,-2.693108E-1,-4.7402017E-2,4.219936E-2,-2.283399E-2,2.8255848E-2,1.5190811E-1,-2.4647032E-1,4.769111E-3,2.942434E-1,6.1351012E-2,3.7545703E-2,-1.0587867E-1,2.50325E-1,3.2943513E-2,-5.139295E-2,1.2234458E-1],"split_indices":[0,4,5,5,2,2,4,1,2,0,5,5,2,0,1,0,0,1,0,0,2,4,4,1,2,5,2,0,0,4,0,0,0,7,0,0,0,0,5,1,4,4,0,0,2,0,1,4,4,0,0,1,4,1,0,0,0,0,0,0,0,0,0,0,0,0,0,0,0,0,0,0,0,0,0,0,0,0,0,0,0,0,0,0,0,0,0,0,0,0,0],"split_type":[0,0,0,0,0,0,0,0,0,0,0,0,0,0,0,0,0,0,0,0,0,0,0,0,0,0,0,0,0,0,0,0,0,0,0,0,0,0,0,0,0,0,0,0,0,0,0,0,0,0,0,0,0,0,0,0,0,0,0,0,0,0,0,0,0,0,0,0,0,0,0,0,0,0,0,0,0,0,0,0,0,0,0,0,0,0,0,0,0,0,0],"sum_hessian":[6.388E3,5.745E3,6.43E2,4.6E1,5.699E3,6.16E2,2.7E1,4E0,4.2E1,1.874E3,3.825E3,5.07E2,1.09E2,3E0,2.4E1,2E0,2E0,3.9E1,3E0,1.563E3,3.11E2,1.98E2,3.627E3,2E1,4.87E2,3.1E1,7.8E1,2E0,1E0,2.2E1,2E0,1E0,1E0,3.8E1,1E0,2E0,1E0,1.469E3,9.4E1,3.6E1,2.75E2,1.38E2,6E1,2.181E3,1.446E3,4E0,1.6E1,3.52E2,1.35E2,2E0,2.9E1,5E0,7.3E1,1.8E1,4E0,9E0,2.9E1,1.396E3,7.3E1,1.2E1,8.2E1,1.7E1,1.9E1,2.58E2,1.7E1,1.24E2,1.4E1,1.5E1,4.5E1,3.5E1,2.146E3,1.32E2,1.314E3,3E0,1E0,9E0,7E0,2.6E2,9.2E1,8.2E1,5.3E1,1.7E1,1.2E1,4E0,1E0,4.9E1,2.4E1,1.7E1,1E0,2E0,2E0],"tree_param":{"num_deleted":"0","num_feature":"8","num_nodes":"91","size_leaf_vector":"1"}},{"base_weights":[-4.747189E-1,-3.316633E-1,-6.2195754E0,2.7738745E0,-6.296718E-1,-2.7533556E1,-5.331473E0,9.605164E-1,1.2943324E1,-1.0542257E1,-5.4392666E-1,-3.2488742E-1,-1.3788127E-2,-1.8947819E1,-3.8017163E0,-7.388625E-1,6.973262E0,1.4587212E1,-1.0584434E1,9.055762E0,-1.4587134E1,-1.65473E0,2.4047632E-2,-2.4417103E1,-3.125834E0,1.1238428E1,-5.3354774E0,-1.2673289E1,4.0676782E-1,2.4031929E1,4.242211E0,2.1007742E1,9.90542E0,2.019849E-1,-2.0780716E1,-7.426947E0,3.1515884E-1,-2.8768084E1,-1.1334168E1,-1.1496508E0,-6.1656985E0,-9.2473537E-1,1.1489877E0,-2.7784437E1,-6.176062E0,3.9298334E0,-1.5674251E-1,-5.9030237E0,1.9512743E1,-4.300123E0,-2.932396E-1,7.785933E-2,-1.6750403E-1,5.1927112E-2,-2.1301098E-2,8.3124E-2,2.595915E-1,2.1374322E-1,2.074762E-2,-6.72657E-2,2.3080915E-1,3.4928754E-2,2.1016212E-1,-3.2517272E-1,1.3082756E-1,-1.4953667E-1,1.5103325E-1,-8.378407E-2,-3.524827E-1,-7.362699E-2,-2.6168233E-1,-1.4854919E-2,6.4800315E-2,-9.7852744E-2,-5.8574914E-3,8.420681E-3,-2.606036E-2,9.253156E-2,8.298099E-3,-2.249279E-2,-3.069517E-1,-1.659634E-1,7.332247E-2,6.0345647E-3,4.837473E-2,1.0992738E-1,-2.083111E-1,2.859926E-1,1.0202943E-1,-8.784022E-2,2.0264847E-2],"categories":[],"categories_nodes":[],"categories_segments":[],"categories_sizes":[],"default_left":[0,0,0,0,0,0,0,0,0,0,0,0,0,0,0,0,0,0,0,0,0,0,0,0,0,0,0,0,0,0,0,0,0,0,0,0,0,0,0,0,0,0,0,0,0,0,0,0,0,0,0,0,0,0,0,0,0,0,0,0,0,0,0,0,0,0,0,0,0,0,0,0,0,0,0,0,0,0,0,0,0,0,0,0,0,0,0,0,0,0,0],"id":7,"left_children":[1,3,5,7,9,11,13,15,17,19,21,-1,-1,23,25,27,29,31,33,35,37,39,41,43,45,47,49,51,53,55,57,59,61,-1,63,65,-1,67,69,71,73,75,77,79,81,83,-1,85,87,89,-1,-1,-1,-1,-1,-1,-1,-1,-1,-1,-1,-1,-1,-1,-1,-1,-1,-1,-1,-1,-1,-1,-1,-1,-1,-1,-1,-1,-1,-1,-1,-1,-1,-1,-1,-1,-1,-1,-1,-1,-1],"loss_changes":[5.276575E3,5.802634E3,2.806129E3,1.0111596E4,4.8560137E3,7.3281396E2,3.07325E3,4.776927E3,3.364588E3,4.0164048E3,3.5785486E3,0E0,0E0,1.2216997E3,3.2202773E3,4.995596E3,4.6966245E3,2.1365566E3,2.3029675E3,3.5659E3,1.5652725E3,4.365155E3,4.0077964E3,5.040625E2,5.042845E2,1.9590233E3,2.9784766E3,2.7996836E3,4.0662734E3,2.0834717E2,3.2976206E3,1.9951914E3,3.2752705E3,0E0,2.4126182E3,1.2433242E3,0E0,6.295786E2,1.8692876E3,4.434824E3,3.8922998E3,6.0531597E3,4.4362207E3,5.998926E2,5.439695E2,9.157406E0,0E0,1.490098E3,4.6954614E2,3.4503132E3,0E0,0E0,0E0,0E0,0E0,0E0,0E0,0E0,0E0,0E0,0E0,0E0,0E0,0E0,0E0,0E0,0E0,0E0,0E0,0E0,0E0,0E0,0E0,0E0,0E0,0E0,0E0,0E0,0E0,0E0,0E0,0E0,0E0,0E0,0E0,0E0,0E0,0E0,0E0,0E0,0E0],"parents":[2147483647,0,0,1,1,2,2,3,3,4,4,5,5,6,6,7,7,8,8,9,9,10,10,13,13,14,14,15,15,16,16,17,17,18,18,19,19,20,20,21,21,22,22,23,23,24,24,25,25,26,26,27,27,28,28,29,29,30,30,31,31,32,32,34,34,35,35,37,37,38,38,39,39,40,40,41,41,42,42,43,43,44,44,45,45,47,47,48,48,49,49],"right_children":[2,4,6,8,10,12,14,16,18,20,22,-1,-1,24,26,28,30,32,34,36,38,40,42,44,46,48,50,52,54,56,58,60,62,-1,64,66,-1,68,70,72,74,76,78,80,82,84,-1,86,88,90,-1,-1,-1,-1,-1,-1,-1,-1,-1,-1,-1,-1,-1,-1,-1,-1,-1,-1,-1,-1,-1,-1,-1,-1,-1,-1,-1,-1,-1,-1,-1,-1,-1,-1,-1,-1,-1,-1,-1,-1,-1],"split_conditions":[1.6505797E0,-1.4361882E0,-1.6007297E0,1.208881E0,-1.6867197E0,1.1262481E0,-1.4212866E0,8.569667E-1,1.4709326E0,-1.1375455E0,-3.5850027E-1,-3.2488742E-1,-1.3788127E-2,1.3309714E0,-1.246348E0,-1.4437199E0,-1.2845426E0,-1.6339755E0,-1.6812394E0,2.647716E-1,-8.361544E-1,1.3664261E0,1.7213914E-1,1.0848165E0,4.278664E-1,-1.357891E0,1.5541034E0,-1.082937E0,-7.0492864E-1,-1.6449533E0,8.9467055E-1,-1.4049588E0,1.5392399E0,2.019849E-1,1.5602388E0,-1.1763357E0,3.1515884E-1,-1.4547541E0,1.1275954E0,1.253136E0,1.6024266E0,-8.250002E-1,2.4034315E-1,-1.4175637E0,-6.655884E-1,-1.5455614E0,-1.5674251E-1,-7.972657E-1,-1.0736047E0,3.2646275E-1,-2.932396E-1,7.785933E-2,-1.6750403E-1,5.1927112E-2,-2.1301098E-2,8.3124E-2,2.595915E-1,2.1374322E-1,2.074762E-2,-6.72657E-2,2.3080915E-1,3.4928754E-2,2.1016212E-1,-3.2517272E-1,1.3082756E-1,-1.4953667E-1,1.5103325E-1,-8.378407E-2,-3.524827E-1,-7.362699E-2,-2.6168233E-1,-1.4854919E-2,6.4800315E-2,-9.7852744E-2,-5.8574914E-3,8.420681E-3,-2.606036E-2,9.253156E-2,8.298099E-3,-2.249279E-2,-3.069517E-1,-1.659634E-1,7.332247E-2,6.0345647E-3,4.837473E-2,1.0992738E-1,-2.083111E-1,2.859926E-1,1.0202943E-1,-8.784022E-2,2.0264847E-2],"split_indices":[3,6,1,0,3,0,6,3,3,0,6,0,0,7,6,5,5,6,1,5,5,1,5,1,1,6,5,3,1,0,3,5,0,0,0,0,0,5,5,1,1,5,5,0,0,0,0,5,0,0,0,0,0,0,0,0,0,0,0,0,0,0,0,0,0,0,0,0,0,0,0,0,0,0,0,0,0,0,0,0,0,0,0,0,0,0,0,0,0,0,0],"split_type":[0,0,0,0,0,0,0,0,0,0,0,0,0,0,0,0,0,0,0,0,0,0,0,0,0,0,0,0,0,0,0,0,0,0,0,0,0,0,0,0,0,0,0,0,0,0,0,0,0,0,0,0,0,0,0,0,0,0,0,0,0,0,0,0,0,0,0,0,0,0,0,0,0,0,0,0,0,0,0,0,0,0,0,0,0,0,0,0,0,0,0],"sum_hessian":[6.422E3,6.267E3,1.55E2,5.48E2,5.719E3,5E0,1.5E2,4.66E2,8.2E1,4.8E1,5.671E3,4E0,1E0,1.4E1,1.36E2,3.64E2,1.02E2,7.7E1,5E0,8E0,4E1,1.918E3,3.753E3,1E1,4E0,1.2E1,1.24E2,3.1E1,3.33E2,1.3E1,8.9E1,3.1E1,4.6E1,1E0,4E0,5E0,3E0,6E0,3.4E1,1.726E3,1.92E2,2.036E3,1.717E3,8E0,2E0,3E0,1E0,4E0,8E0,1.2E2,4E0,5E0,2.6E1,1.15E2,2.18E2,2E0,1.1E1,9E0,8E1,2E0,2.9E1,3E1,1.6E1,3E0,1E0,4E0,1E0,2E0,4E0,2.8E1,6E0,1.654E3,7.2E1,1.16E2,7.6E1,9.93E2,1.043E3,6.4E1,1.653E3,1E0,7E0,1E0,1E0,1E0,2E0,2E0,2E0,3E0,5E0,7E1,5E1],"tree_param":{"num_deleted":"0","num_feature":"8","num_nodes":"91","size_leaf_vector":"1"}},{"base_weights":[2.4889712E-1,1.4189288E1,1.3745731E-1,1.801037E1,-3.2781875E0,-5.929738E-1,1.1414773E0,2.1016283E1,8.744232E0,-1.8421198E1,2.4041626E1,-1.4325796E0,1.0094155E0,2.0833144E0,-4.8901194E-1,8.634966E0,2.4267712E1,-9.862524E0,2.3443705E1,3.4571912E-2,-2.2643793E1,3.025645E-1,2.6985759E-2,-4.397015E0,-8.201115E-1,1.3567742E1,8.655992E-2,6.4666133E0,1.4494268E0,4.082674E0,-2.074694E0,1.58784E1,-2.1034534E-1,2.6273174E1,1.471742E0,-1.5049668E-1,3.4117508E-1,9.354838E-2,2.720828E-1,-3.2422712E-1,-2.0572994E0,1.0876968E1,-6.1917953E0,6.156744E0,-1.246533E0,8.618012E0,2.317003E1,-7.656035E-1,6.665126E0,-2.5686953E0,7.8891544E0,-1.0980869E1,1.591805E0,-6.211384E-1,7.856801E0,-1.7493149E1,-1.7934237E0,-3.5400677E-2,1.9704822E-1,2.7597025E-1,1.341658E-1,-3.3054352E-3,2.5381565E-2,2.2388E-2,-1.7270373E-2,-8.081247E-2,4.9952984E-2,-1.2251089E-1,1.349605E-1,-1.10338606E-1,-3.7262708E-2,-1.606591E-1,7.951625E-2,-8.480604E-2,-8.21966E-3,1.9227903E-1,1.3053627E-2,2.5530863E-1,-2.146663E-1,-1.5314096E-2,7.836357E-2,2.6285416E-1,4.728257E-2,4.1974973E-2,-2.1700412E-1,9.67843E-2,-2.1313531E-2,-2.992495E-1,-5.9375684E-3,-3.9122783E-2,1.8362565E-2,2.1924053E-1,-2.529493E-2,-1.8674518E-1,8.7677486E-2,-3.0178443E-1,-2.308832E-2,-7.535584E-3,-5.428242E-2],"categories":[],"categories_nodes":[],"categories_segments":[],"categories_sizes":[],"default_left":[0,0,0,0,0,0,0,0,0,0,0,0,0,0,0,0,0,0,0,0,0,0,0,0,0,0,0,0,0,0,0,0,0,0,0,0,0,0,0,0,0,0,0,0,0,0,0,0,0,0,0,0,0,0,0,0,0,0,0,0,0,0,0,0,0,0,0,0,0,0,0,0,0,0,0,0,0,0,0,0,0,0,0,0,0,0,0,0,0,0,0,0,0,0,0,0,0,0,0],"id":8,"left_children":[1,3,5,7,9,11,13,15,17,19,21,23,25,27,29,31,33,35,37,-1,39,-1,-1,41,43,45,47,49,51,53,55,57,-1,59,61,-1,63,-1,-1,-1,65,67,69,71,73,75,77,79,81,83,85,87,89,91,93,95,97,-1,-1,-1,-1,-1,-1,-1,-1,-1,-1,-1,-1,-1,-1,-1,-1,-1,-1,-1,-1,-1,-1,-1,-1,-1,-1,-1,-1,-1,-1,-1,-1,-1,-1,-1,-1,-1,-1,-1,-1,-1,-1],"loss_changes":[9.990255E3,3.4630195E3,4.6810283E3,9.860635E2,4.5799175E3,4.9726074E3,4.12886E3,1.038415E3,3.5133281E3,7.24969E2,4.4892407E2,4.3992773E3,1.4729109E4,4.725224E3,7.1489717E3,2.053267E3,1.0585273E3,3.2270288E2,1.16741455E2,0E0,1.1411792E3,0E0,0E0,1.1443928E4,5.9905625E3,3.9353203E3,6.6482285E3,2.7836816E3,2.654488E3,4.5140874E3,3.1431301E3,5.8987915E2,0E0,4.1875E0,6.6049213E0,0E0,1.5640567E1,0E0,0E0,0E0,1.6782169E2,2.8306104E3,4.3999062E3,4.754644E3,5.8163047E3,4.5524995E3,3.6040713E3,6.9288066E3,5.0439775E3,3.9745537E3,3.3555059E3,3.327395E3,1.9904236E3,4.960218E3,3.5715117E3,2.4343513E3,2.717309E3,0E0,0E0,0E0,0E0,0E0,0E0,0E0,0E0,0E0,0E0,0E0,0E0,0E0,0E0,0E0,0E0,0E0,0E0,0E0,0E0,0E0,0E0,0E0,0E0,0E0,0E0,0E0,0E0,0E0,0E0,0E0,0E0,0E0,0E0,0E0,0E0,0E0,0E0,0E0,0E0,0E0,0E0],"parents":[2147483647,0,0,1,1,2,2,3,3,4,4,5,5,6,6,7,7,8,8,9,9,10,10,11,11,12,12,13,13,14,14,15,15,16,16,17,17,18,18,20,20,23,23,24,24,25,25,26,26,27,27,28,28,29,29,30,30,31,31,33,33,34,34,36,36,40,40,41,41,42,42,43,43,44,44,45,45,46,46,47,47,48,48,49,49,50,50,51,51,52,52,53,53,54,54,55,55,56,56],"right_children":[2,4,6,8,10,12,14,16,18,20,22,24,26,28,30,32,34,36,38,-1,40,-1,-1,42,44,46,48,50,52,54,56,58,-1,60,62,-1,64,-1,-1,-1,66,68,70,72,74,76,78,80,82,84,86,88,90,92,94,96,98,-1,-1,-1,-1,-1,-1,-1,-1,-1,-1,-1,-1,-1,-1,-1,-1,-1,-1,-1,-1,-1,-1,-1,-1,-1,-1,-1,-1,-1,-1,-1,-1,-1,-1,-1,-1,-1,-1,-1,-1,-1,-1],"split_conditions":[-1.7174438E0,1.2996862E0,2.8822115E-1,1.3220453E-1,1.6024266E0,5.104176E-1,4.3256542E-1,-1.4963682E0,8.4459627E-1,-1.5746833E0,2.1709739E-1,-1.1136653E0,-1.5203948E0,-1.2746143E0,6.6544807E-1,-1.5238755E0,1.1868778E0,-2.3695655E-1,-1.3270584E0,3.4571912E-2,1.5754842E0,3.025645E-1,2.6985759E-2,-1.4775406E0,-1.6004477E0,2.3163357E-1,1.3749814E0,-1.2667961E0,-1.2421417E0,4.470071E-1,-1.6812394E0,-1.6980522E0,-2.1034534E-1,1.3309714E0,-1.8169552E-1,-1.5049668E-1,-1.695682E0,9.354838E-2,2.720828E-1,-3.2422712E-1,3.531523E-2,-1.5446543E0,-5.8356595E-1,-1.0294253E0,-1.4953507E0,-9.305211E-1,2.1195209E-1,1.4709326E0,1.3906288E0,1.3309714E0,1.3330812E0,-1.4310551E0,-1.6449533E0,-1.4212866E0,-1.6501753E0,1.0495057E0,1.0423024E0,-3.5400677E-2,1.9704822E-1,2.7597025E-1,1.341658E-1,-3.3054352E-3,2.5381565E-2,2.2388E-2,-1.7270373E-2,-8.081247E-2,4.9952984E-2,-1.2251089E-1,1.349605E-1,-1.10338606E-1,-3.7262708E-2,-1.606591E-1,7.951625E-2,-8.480604E-2,-8.21966E-3,1.9227903E-1,1.3053627E-2,2.5530863E-1,-2.146663E-1,-1.5314096E-2,7.836357E-2,2.6285416E-1,4.728257E-2,4.1974973E-2,-2.1700412E-1,9.67843E-2,-2.1313531E-2,-2.992495E-1,-5.9375684E-3,-3.9122783E-2,1.8362565E-2,2.1924053E-1,-2.529493E-2,-1.8674518E-1,8.7677486E-2,-3.0178443E-1,-2.308832E-2,-7.535584E-3,-5.428242E-2],"split_indices":[4,1,4,3,1,0,0,3,3,0,0,3,6,1,4,3,1,6,6,0,1,0,0,4,0,1,6,3,1,4,1,6,0,7,0,0,0,0,0,0,0,6,6,3,0,1,4,3,6,7,3,0,0,6,1,4,3,0,0,0,0,0,0,0,0,0,0,0,0,0,0,0,0,0,0,0,0,0,0,0,0,0,0,0,0,0,0,0,0,0,0,0,0,0,0,0,0,0,0],"split_type":[0,0,0,0,0,0,0,0,0,0,0,0,0,0,0,0,0,0,0,0,0,0,0,0,0,0,0,0,0,0,0,0,0,0,0,0,0,0,0,0,0,0,0,0,0,0,0,0,0,0,0,0,0,0,0,0,0,0,0,0,0,0,0,0,0,0,0,0,0,0,0,0,0,0,0,0,0,0,0,0,0,0,0,0,0,0,0,0,0,0,0,0,0,0,0,0,0,0,0],"sum_hessian":[6.431E3,5E1,6.381E3,4.1E1,9E0,3.694E3,2.687E3,3E1,1.1E1,6E0,3E0,2.424E3,1.27E3,1.703E3,9.84E2,7E0,2.3E1,5E0,6E0,1E0,5E0,2E0,1E0,4.14E2,2.01E3,8.6E1,1.184E3,2.14E2,1.489E3,2.53E2,7.31E2,6E0,1E0,2.1E1,2E0,3E0,2E0,2E0,4E0,3E0,2E0,4.3E1,3.71E2,1.15E2,1.895E3,5.8E1,2.8E1,1.049E3,1.35E2,2.9E1,1.85E2,1.6E1,1.473E3,1.13E2,1.4E2,1.2E1,7.19E2,1E0,5E0,1.8E1,3E0,1E0,1E0,1E0,1E0,1E0,1E0,4E0,3.9E1,1.24E2,2.47E2,8E0,1.07E2,1.04E2,1.791E3,2.3E1,3.5E1,2.7E1,1E0,9.64E2,8.5E1,1.1E1,1.24E2,2.2E1,7E0,1.57E2,2.8E1,5E0,1.1E1,6.2E1,1.411E3,8E0,1.05E2,4E0,1.36E2,6E0,6E0,5.6E2,1.59E2],"tree_param":{"num_deleted":"0","num_feature":"8","num_nodes":"99","size_leaf_vector":"1"}},{"base_weights":[-8.127657E-3,8.328645E0,-1.16259135E-1,1.1796256E1,-9.356627E0,-1.4344649E0,5.3741384E-1,1.2901234E1,-1.6813656E1,5.528546E0,-2.5031591E1,-1.9205761E-1,-3.7541559E0,4.464187E0,2.5878313E-1,-1.4412911E0,1.5151648E1,-2.3188928E-1,-2.0315552E-2,-1.5311667E1,2.1095007E1,6.0840413E-2,-3.1231539E1,-4.5707285E-1,1.5302401E1,-2.9584143E0,-9.534875E0,-6.3019214E0,6.4441223E0,-1.0393958E0,1.3460159E0,-8.32675E0,1.7400362E-1,2.4257118E1,9.720949E0,-2.138533E-1,-6.1586697E-2,5.1036034E-2,3.0054742E-1,-3.4261507E-1,-8.04084E-2,2.7219481E0,-1.7315166E0,-1.6689458E-1,1.914398E1,1.24759E0,-4.1292243E0,-1.2350369E1,1.3661017E1,-1.0342292E1,1.05597725E1,1.1058911E1,-2.0930395E0,-2.6429262E0,7.6391065E-1,2.7061362E0,8.227575E-2,1.073744E-1,-3.0075297E-1,1.1815236E-1,2.7406752E-1,2.354379E-1,3.217429E-2,1.14327975E-1,1.4768512E-2,-1.8378451E-1,-1.4835877E-2,9.38605E-2,3.111166E-1,-7.458713E-2,6.4182244E-2,-1.05582565E-1,-2.667988E-2,-2.0409277E-1,-7.773451E-2,1.9326974E-1,-6.0018767E-2,7.980065E-2,-1.5862253E-1,-8.160737E-2,1.707431E-1,-6.1627362E-2,1.2170342E-1,-7.617318E-2,7.121954E-2,4.042174E-2,-3.5470434E-2,1.3271303E-2,-6.790453E-2,-2.2581194E-2,3.8467053E-2,-2.6724871E-2,2.0863878E-2],"categories":[],"categories_nodes":[],"categories_segments":[],"categories_sizes":[],"default_left":[0,0,0,0,0,0,0,0,0,0,0,0,0,0,0,0,0,0,0,0,0,0,0,0,0,0,0,0,0,0,0,0,0,0,0,0,0,0,0,0,0,0,0,0,0,0,0,0,0,0,0,0,0,0,0,0,0,0,0,0,0,0,0,0,0,0,0,0,0,0,0,0,0,0,0,0,0,0,0,0,0,0,0,0,0,0,0,0,0,0,0,0,0],"id":9,"left_children":[1,3,5,7,9,11,13,15,17,19,21,23,25,27,29,31,33,-1,-1,35,37,-1,39,41,43,45,47,49,51,53,55,57,-1,59,61,-1,-1,-1,-1,-1,-1,63,65,-1,67,69,71,73,75,77,79,81,83,85,87,89,91,-1,-1,-1,-1,-1,-1,-1,-1,-1,-1,-1,-1,-1,-1,-1,-1,-1,-1,-1,-1,-1,-1,-1,-1,-1,-1,-1,-1,-1,-1,-1,-1,-1,-1,-1,-1],"loss_changes":[5.773065E3,5.1390757E3,5.448283E3,2.3982344E3,3.4049321E3,6.0399536E3,4.6236885E3,2.184372E3,2.3561005E2,2.9182666E3,1.5404209E3,5.616156E3,3.3343613E3,6.0091455E3,5.5736963E3,1.4422225E3,2.6322432E3,0E0,0E0,9.0663635E1,5.6300635E2,0E0,1.4611133E2,5.4499067E3,3.146186E3,3.1764854E3,5.915814E3,3.1068218E3,9.360282E3,5.207001E3,3.693561E3,3.6398792E3,0E0,4.9911816E2,3.3403403E3,0E0,0E0,0E0,0E0,0E0,0E0,4.1587676E3,3.9348994E3,0E0,2.1603604E3,6.395284E3,4.706576E3,2.7552617E3,1.2300895E3,3.7675747E3,1.2369381E3,3.022668E3,4.33037E3,5.7743784E3,3.6170542E3,5.8689365E3,6.161328E3,0E0,0E0,0E0,0E0,0E0,0E0,0E0,0E0,0E0,0E0,0E0,0E0,0E0,0E0,0E0,0E0,0E0,0E0,0E0,0E0,0E0,0E0,0E0,0E0,0E0,0E0,0E0,0E0,0E0,0E0,0E0,0E0,0E0,0E0,0E0,0E0],"parents":[2147483647,0,0,1,1,2,2,3,3,4,4,5,5,6,6,7,7,8,8,9,9,10,10,11,11,12,12,13,13,14,14,15,15,16,16,19,19,20,20,22,22,23,23,24,24,25,25,26,26,27,27,28,28,29,29,30,30,31,31,33,33,34,34,41,41,42,42,44,44,45,45,46,46,47,47,48,48,49,49,50,50,51,51,52,52,53,53,54,54,55,55,56,56],"right_children":[2,4,6,8,10,12,14,16,18,20,22,24,26,28,30,32,34,-1,-1,36,38,-1,40,42,44,46,48,50,52,54,56,58,-1,60,62,-1,-1,-1,-1,-1,-1,64,66,-1,68,70,72,74,76,78,80,82,84,86,88,90,92,-1,-1,-1,-1,-1,-1,-1,-1,-1,-1,-1,-1,-1,-1,-1,-1,-1,-1,-1,-1,-1,-1,-1,-1,-1,-1,-1,-1,-1,-1,-1,-1,-1,-1,-1,-1],"split_conditions":[-1.7030743E0,1.395168E0,-5.7906276E-1,1.3330812E0,-3.7569103E-1,5.62184E-1,-1.5078475E0,-1.4963682E0,-9.422018E-1,-9.4006464E-2,1.4136869E0,1.6753665E0,1.5912676E0,-1.1595781E0,-1.5696375E-1,7.4783313E-1,-5.216998E-1,-2.3188928E-1,-2.0315552E-2,1.4136869E0,-8.576967E-1,6.0840413E-2,5.699812E-1,-1.3859102E0,-1.6872905E0,-1.0456399E0,1.2774692E0,1.2422364E0,7.413633E-1,1.149936E-1,5.218827E-1,2.647716E-1,1.7400362E-1,-9.8490644E-1,-1.1428003E0,-2.138533E-1,-6.1586697E-2,5.1036034E-2,3.0054742E-1,-3.4261507E-1,-8.04084E-2,-1.3478003E0,-1.6834197E0,-1.6689458E-1,1.7626849E-1,-1.4711376E0,7.7473253E-1,1.6490229E0,5.9707046E-1,-2.672351E-1,-1.5368196E0,-1.4722904E0,3.886432E-1,-1.5203948E0,1.5071036E0,-1.0775934E0,1.042505E0,1.073744E-1,-3.0075297E-1,1.1815236E-1,2.7406752E-1,2.354379E-1,3.217429E-2,1.14327975E-1,1.4768512E-2,-1.8378451E-1,-1.4835877E-2,9.38605E-2,3.111166E-1,-7.458713E-2,6.4182244E-2,-1.05582565E-1,-2.667988E-2,-2.0409277E-1,-7.773451E-2,1.9326974E-1,-6.0018767E-2,7.980065E-2,-1.5862253E-1,-8.160737E-2,1.707431E-1,-6.1627362E-2,1.2170342E-1,-7.617318E-2,7.121954E-2,4.042174E-2,-3.5470434E-2,1.3271303E-2,-6.790453E-2,-2.2581194E-2,3.8467053E-2,-2.6724871E-2,2.0863878E-2],"split_indices":[4,1,2,3,2,6,5,3,1,3,1,5,6,4,4,6,3,0,0,1,2,0,5,2,2,5,5,3,4,6,2,5,0,2,2,0,0,0,0,0,0,5,5,0,4,5,6,6,1,2,1,1,3,6,5,6,2,0,0,0,0,0,0,0,0,0,0,0,0,0,0,0,0,0,0,0,0,0,0,0,0,0,0,0,0,0,0,0,0,0,0,0,0],"split_type":[0,0,0,0,0,0,0,0,0,0,0,0,0,0,0,0,0,0,0,0,0,0,0,0,0,0,0,0,0,0,0,0,0,0,0,0,0,0,0,0,0,0,0,0,0,0,0,0,0,0,0,0,0,0,0,0,0,0,0,0,0,0,0,0,0,0,0,0,0,0,0,0,0,0,0,0,0,0,0,0,0,0,0,0,0,0,0,0,0,0,0,0,0],"sum_hessian":[6.402E3,8.1E1,6.321E3,6.8E1,1.3E1,2.095E3,4.226E3,6.6E1,2E0,7E0,6E0,1.365E3,7.3E2,2.79E2,3.947E3,9E0,5.7E1,1E0,1E0,3E0,4E0,1E0,5E0,1.343E3,2.2E1,6.43E2,8.7E1,4.3E1,2.36E2,1.799E3,2.148E3,7E0,2E0,2E1,3.7E1,1E0,2E0,2E0,2E0,4E0,1E0,3.84E2,9.59E2,2E0,2E1,1.4E2,5.03E2,7.8E1,9E0,3.5E1,8E0,1.53E2,8.3E1,9.52E2,8.47E2,1.034E3,1.114E3,4E0,3E0,5E0,1.5E1,1.1E1,2.6E1,4.7E1,3.37E2,1.3E1,9.46E2,1.2E1,8E0,5.2E1,8.8E1,9.2E1,4.11E2,2.7E1,5.1E1,7E0,2E0,8E0,2.7E1,2E0,6E0,9E0,1.44E2,5.2E1,3.1E1,1.13E2,8.39E2,7.89E2,5.8E1,1.93E2,8.41E2,4.69E2,6.45E2],"tree_param":{"num_deleted":"0","num_feature":"8","num_nodes":"93","size_leaf_vector":"1"}},{"base_weights":[-1.644284E-2,9.80151E0,-1.3052978E-1,2.7794415E1,7.472044E0,-1.4660023E0,5.356447E-1,3.2253855E-1,9.610728E-2,-4.4223046E-1,1.4494465E1,5.0051373E-1,-2.9728694E0,-7.198842E-1,1.6804338E0,9.317347E0,-9.601702E0,1.7208412E1,-1.0840723E1,1.854404E0,-3.4754088E0,-3.559153E0,2.2071216E0,-3.5106173E-1,-7.1778574E0,6.3349223E0,1.2661241E0,1.4233308E1,-1.6729588E1,-1.3140967E1,1.12951964E-1,-8.469725E0,2.015683E1,-2.2677383E-1,1.2334629E-1,1.7243527E-2,5.704812E0,1.0047671E0,-1.0255291E1,-2.0271099E0,-7.1629677E0,-2.4858557E-1,3.3449104E0,-1.10493116E-1,-9.216211E0,-9.128763E0,1.2853897E1,7.704759E0,-2.3908434E1,7.973363E0,9.1908044E-1,1.9833496E-1,-1.2911877E-1,-2.3072985E-1,-2.0213965E-2,-6.2460598E-2,-3.0540448E-1,-3.449764E-3,-1.1062981E-1,2.590412E-1,4.5068417E-2,-9.9680675E-3,8.5431926E-2,-1.5431957E-1,6.579343E-2,-1.7240593E-1,3.008155E-2,-1.7083326E-1,8.406326E-3,-3.49766E-2,1.5641257E-2,-9.575007E-2,3.5052642E-3,1.16917506E-1,-2.6310332E-2,-1.3137441E-2,2.5948979E-2,-2.7740061E-2,-3.1804574E-1,-1.0452323E-1,1.3128464E-1,2.637307E-1,3.292383E-2,2.2777785E-1,5.5716123E-2,-3.3537352E-1,3.318887E-2,1.4026658E-1,1.5102725E-2,-3.953365E-3,2.0162737E-2],"categories":[],"categories_nodes":[],"categories_segments":[],"categories_sizes":[],"default_left":[0,0,0,0,0,0,0,0,0,0,0,0,0,0,0,0,0,0,0,0,0,0,0,0,0,0,0,0,0,0,0,0,0,0,0,0,0,0,0,0,0,0,0,0,0,0,0,0,0,0,0,0,0,0,0,0,0,0,0,0,0,0,0,0,0,0,0,0,0,0,0,0,0,0,0,0,0,0,0,0,0,0,0,0,0,0,0,0,0,0,0],"id":10,"left_children":[1,3,5,7,9,11,13,-1,-1,15,17,19,21,23,25,27,29,31,33,35,37,39,41,43,45,47,49,51,53,55,-1,57,59,-1,-1,61,63,65,67,69,71,-1,73,75,77,79,81,83,85,87,89,-1,-1,-1,-1,-1,-1,-1,-1,-1,-1,-1,-1,-1,-1,-1,-1,-1,-1,-1,-1,-1,-1,-1,-1,-1,-1,-1,-1,-1,-1,-1,-1,-1,-1,-1,-1,-1,-1,-1,-1],"loss_changes":[7.118396E3,2.8520303E3,5.589615E3,3.387295E2,3.6745164E3,6.1977026E3,6.0264375E3,0E0,0E0,2.9500247E3,2.5930933E3,4.894175E3,3.6035986E3,4.761172E3,4.220959E3,2.2868486E3,1.4057446E3,2.5934395E3,1.3769922E3,4.795949E3,7.026944E3,5.860036E3,3.8093474E3,4.036139E3,4.3379873E3,7.5999043E3,4.682997E3,2.3843418E3,2.3326007E2,1.6087595E3,0E0,8.046176E1,2.4916602E3,0E0,0E0,3.9855571E3,4.149697E3,5.169218E3,6.984589E3,3.9557283E3,5.748298E3,0E0,5.86675E3,6.0061167E3,7.187718E3,3.0536406E3,1.2058074E3,5.4034043E3,2.2086646E3,3.8519932E3,2.7654353E3,0E0,0E0,0E0,0E0,0E0,0E0,0E0,0E0,0E0,0E0,0E0,0E0,0E0,0E0,0E0,0E0,0E0,0E0,0E0,0E0,0E0,0E0,0E0,0E0,0E0,0E0,0E0,0E0,0E0,0E0,0E0,0E0,0E0,0E0,0E0,0E0,0E0,0E0,0E0,0E0],"parents":[2147483647,0,0,1,1,2,2,3,3,4,4,5,5,6,6,9,9,10,10,11,11,12,12,13,13,14,14,15,15,16,16,17,17,18,18,19,19,20,20,21,21,22,22,23,23,24,24,25,25,26,26,27,27,28,28,29,29,31,31,32,32,35,35,36,36,37,37,38,38,39,39,40,40,42,42,43,43,44,44,45,45,46,46,47,47,48,48,49,49,50,50],"right_children":[2,4,6,8,10,12,14,-1,-1,16,18,20,22,24,26,28,30,32,34,36,38,40,42,44,46,48,50,52,54,56,-1,58,60,-1,-1,62,64,66,68,70,72,-1,74,76,78,80,82,84,86,88,90,-1,-1,-1,-1,-1,-1,-1,-1,-1,-1,-1,-1,-1,-1,-1,-1,-1,-1,-1,-1,-1,-1,-1,-1,-1,-1,-1,-1,-1,-1,-1,-1,-1,-1,-1,-1,-1,-1,-1,-1],"split_conditions":[-1.7030743E0,-1.5570155E0,-5.7906276E-1,9.86389E-1,-2.5431016E-1,-1.689319E-1,-6.018767E-2,3.2253855E-1,9.610728E-2,2.687971E-1,1.4655826E0,-8.789855E-1,1.4116125E0,1.5165077E0,-3.9964595E-1,1.0569832E0,5.6638455E-1,-1.5967778E0,1.6176858E0,-6.500979E-1,-7.984901E-1,3.8862666E-1,-9.9386185E-2,1.6505797E0,1.4406391E0,1.5602388E0,1.2959866E-2,7.5368536E-1,-1.6449533E0,-4.5129472E-1,1.12951964E-1,-1.7174438E0,7.577051E-2,-2.2677383E-1,1.2334629E-1,1.3312998E0,-1.6062213E0,-1.4538689E0,6.075749E-1,1.1308011E0,1.3309714E0,-2.4858557E-1,5.7852656E-1,6.470748E-1,8.3755887E-1,1.6972928E0,1.5671375E0,-1.2967424E0,-4.129415E-1,-2.0937243E-1,-2.4105693E-1,1.9833496E-1,-1.2911877E-1,-2.3072985E-1,-2.0213965E-2,-6.2460598E-2,-3.0540448E-1,-3.449764E-3,-1.1062981E-1,2.590412E-1,4.5068417E-2,-9.9680675E-3,8.5431926E-2,-1.5431957E-1,6.579343E-2,-1.7240593E-1,3.008155E-2,-1.7083326E-1,8.406326E-3,-3.49766E-2,1.5641257E-2,-9.575007E-2,3.5052642E-3,1.16917506E-1,-2.6310332E-2,-1.3137441E-2,2.5948979E-2,-2.7740061E-2,-3.1804574E-1,-1.0452323E-1,1.3128464E-1,2.637307E-1,3.292383E-2,2.2777785E-1,5.5716123E-2,-3.3537352E-1,3.318887E-2,1.4026658E-1,1.5102725E-2,-3.953365E-3,2.0162737E-2],"split_indices":[4,2,2,3,2,4,4,0,0,0,2,2,0,5,2,3,3,5,2,4,4,0,4,3,0,0,4,5,0,2,0,4,3,0,0,5,5,3,5,4,7,0,4,3,5,5,5,3,2,5,5,0,0,0,0,0,0,0,0,0,0,0,0,0,0,0,0,0,0,0,0,0,0,0,0,0,0,0,0,0,0,0,0,0,0,0,0,0,0,0,0],"split_type":[0,0,0,0,0,0,0,0,0,0,0,0,0,0,0,0,0,0,0,0,0,0,0,0,0,0,0,0,0,0,0,0,0,0,0,0,0,0,0,0,0,0,0,0,0,0,0,0,0,0,0,0,0,0,0,0,0,0,0,0,0,0,0,0,0,0,0,0,0,0,0,0,0,0,0,0,0,0,0,0,0,0,0,0,0,0,0,0,0,0,0],"sum_hessian":[6.353E3,7.2E1,6.281E3,7E0,6.5E1,2.09E3,4.191E3,5E0,2E0,3.1E1,3.4E1,9.07E2,1.183E3,1.999E3,2.192E3,1.5E1,1.6E1,3.1E1,3E0,6.77E2,2.3E2,1.063E3,1.2E2,1.892E3,1.07E2,1.78E2,2.014E3,1.3E1,2E0,1.4E1,2E0,3E0,2.8E1,2E0,1E0,4.59E2,2.18E2,1.39E2,9.1E1,7.47E2,3.16E2,4E0,1.16E2,1.843E3,4.9E1,9.8E1,9E0,1.71E2,7E0,9.8E1,1.916E3,1.1E1,2E0,1E0,1E0,1.1E1,3E0,1E0,2E0,2E1,8E0,4.11E2,4.8E1,8E0,2.1E2,1.3E1,1.26E2,5.6E1,3.5E1,5.3E2,2.17E2,2.39E2,7.7E1,4.8E1,6.8E1,1.276E3,5.67E2,3.9E1,1E1,9.3E1,5E0,3E0,6E0,2E1,1.51E2,5E0,2E0,5E1,4.8E1,8.72E2,1.044E3],"tree_param":{"num_deleted":"0","num_feature":"8","num_nodes":"91","size_leaf_vector":"1"}},{"base_weights":[1.32092E-1,5.522921E0,-9.427692E-3,2.0897182E1,3.3492537E0,-1.314487E0,6.5196925E-1,4.702379E0,2.5981958E1,9.150176E0,1.66314E-1,-2.465118E0,1.0019329E0,4.5465713E0,4.480271E-1,-1.181909E-2,7.94E-2,3.0233158E1,-1.1005656E0,1.7733713E1,-1.2452074E0,-8.907388E0,3.0625477E0,2.4170046E0,-3.0857072E0,4.1468554E0,-2.795123E0,8.227706E-1,1.2204209E1,-3.3761644E-1,1.7466686E0,1.3126212E-1,3.2150218E-1,7.2513886E-2,-8.902237E-2,2.5603899E1,-1.7259988E0,-1.2001454E1,6.008638E0,-1.7461933E1,6.339898E0,4.456145E0,-2.1742639E-1,4.262317E0,-1.6867805E1,-8.663603E0,-2.4464633E0,-7.9472194E0,5.6330037E0,-1.4278361E1,-1.0247175E0,-4.5015864E0,7.507885E0,-1.0884109E1,1.5974537E1,5.998424E0,-6.220248E-1,3.4325666E0,-8.933164E-2,-3.6752224E-2,2.7338335E-1,-2.2913043E-1,7.600735E-2,-1.6422749E-1,1.3895096E-1,1.6112699E-1,-2.517704E-2,-7.0947115E-3,-3.650625E-1,1.747427E-1,-6.0624532E-2,-8.955497E-2,7.436762E-2,1.2883107E-2,1.2312481E-1,1.307761E-1,-2.2948508E-1,-1.6605318E-1,-4.955282E-2,-1.0120034E-2,-5.3126555E-2,4.4808187E-2,-1.3067794E-1,1.3872677E-1,3.475929E-2,-7.797812E-2,-2.5423494E-1,-3.1683452E-2,6.356209E-2,-3.0554305E-3,-1.0214204E-1,5.024801E-2,1.9917442E-1,7.9328425E-2,-3.1287628E-1,2.1598686E-1,-1.3877368E-3,-1.0400501E-1,8.847139E-2,-1.0724314E-1,-3.4211867E-3,2.3920178E-2,1.2633435E-1,4.184767E-2,-2.0760728E-2],"categories":[],"categories_nodes":[],"categories_segments":[],"categories_sizes":[],"default_left":[0,0,0,0,0,0,0,0,0,0,0,0,0,0,0,0,0,0,0,0,0,0,0,0,0,0,0,0,0,0,0,0,0,0,0,0,0,0,0,0,0,0,0,0,0,0,0,0,0,0,0,0,0,0,0,0,0,0,0,0,0,0,0,0,0,0,0,0,0,0,0,0,0,0,0,0,0,0,0,0,0,0,0,0,0,0,0,0,0,0,0,0,0,0,0,0,0,0,0,0,0,0,0,0,0],"id":11,"left_children":[1,3,5,7,9,11,13,15,17,19,21,23,25,27,29,-1,-1,31,33,35,37,39,41,43,45,47,49,51,53,55,57,-1,-1,-1,-1,59,61,63,65,67,69,71,-1,73,75,77,79,81,83,85,87,89,91,93,95,97,99,101,103,-1,-1,-1,-1,-1,-1,-1,-1,-1,-1,-1,-1,-1,-1,-1,-1,-1,-1,-1,-1,-1,-1,-1,-1,-1,-1,-1,-1,-1,-1,-1,-1,-1,-1,-1,-1,-1,-1,-1,-1,-1,-1,-1,-1,-1,-1],"loss_changes":[4.861304E3,5.377231E3,5.361094E3,1.5247617E3,2.6572925E3,5.5703745E3,3.271959E3,1.2369095E2,1.7602725E3,4.572769E3,2.497558E3,4.23705E3,8.298955E3,5.8356396E3,3.9980051E3,0E0,0E0,4.3251953E0,2.600312E2,4.3324355E3,1.9446919E3,3.1106797E3,2.585816E3,5.694564E3,4.396627E3,6.874731E3,6.389316E3,4.9813545E3,6.006254E3,4.4042705E3,4.572079E3,0E0,0E0,0E0,0E0,1.1161318E3,1.9526094E3,1.3731586E3,1.3328274E3,4.7596875E3,1.3487684E3,2.8248733E3,0E0,3.4556172E3,2.8493606E3,3.65792E3,4.5706543E3,2.7313804E3,5.9770273E3,2.8352686E3,4.3553555E3,1.86657E3,1.8103855E3,4.0875205E3,5.25917E3,4.9971807E3,6.607476E3,7.3417236E3,6.02069E3,0E0,0E0,0E0,0E0,0E0,0E0,0E0,0E0,0E0,0E0,0E0,0E0,0E0,0E0,0E0,0E0,0E0,0E0,0E0,0E0,0E0,0E0,0E0,0E0,0E0,0E0,0E0,0E0,0E0,0E0,0E0,0E0,0E0,0E0,0E0,0E0,0E0,0E0,0E0,0E0,0E0,0E0,0E0,0E0,0E0,0E0],"parents":[2147483647,0,0,1,1,2,2,3,3,4,4,5,5,6,6,7,7,8,8,9,9,10,10,11,11,12,12,13,13,14,14,17,17,18,18,19,19,20,20,21,21,22,22,23,23,24,24,25,25,26,26,27,27,28,28,29,29,30,30,35,35,36,36,37,37,38,38,39,39,40,40,41,41,43,43,44,44,45,45,46,46,47,47,48,48,49,49,50,50,51,51,52,52,53,53,54,54,55,55,56,56,57,57,58,58],"right_children":[2,4,6,8,10,12,14,16,18,20,22,24,26,28,30,-1,-1,32,34,36,38,40,42,44,46,48,50,52,54,56,58,-1,-1,-1,-1,60,62,64,66,68,70,72,-1,74,76,78,80,82,84,86,88,90,92,94,96,98,100,102,104,-1,-1,-1,-1,-1,-1,-1,-1,-1,-1,-1,-1,-1,-1,-1,-1,-1,-1,-1,-1,-1,-1,-1,-1,-1,-1,-1,-1,-1,-1,-1,-1,-1,-1,-1,-1,-1,-1,-1,-1,-1,-1,-1,-1,-1,-1],"split_conditions":[-1.6582899E0,-1.3859102E0,-5.7906276E-1,-8.697033E-1,-6.326526E-1,5.929535E-1,-1.5731376E0,-1.6584264E0,1.3309714E0,4.1780603E-1,-4.6134126E-1,-1.2990036E0,1.0459776E-1,5.270969E-1,4.470071E-1,-1.181909E-2,7.94E-2,-4.6134126E-1,7.3136616E-1,-1.6879554E0,-1.3340718E0,9.639527E-1,1.2357537E0,4.0195206E-1,-9.7927326E-1,-1.2702042E0,3.1781128E-1,1.0717303E-1,-1.4786807E-1,-1.585311E0,6.3568965E-2,1.3126212E-1,3.2150218E-1,7.2513886E-2,-8.902237E-2,-1.6980522E0,-1.0420557E0,1.011456E0,-1.0000546E0,-4.1354205E-2,-1.1881728E0,-1.2817285E0,-2.1742639E-1,8.901644E-1,-1.1763357E0,-1.3603429E0,-9.5629793E-1,-8.9462763E-1,-1.5307752E0,-8.9164376E-1,8.313546E-1,-3.3692664E-1,1.2750845E0,4.3481505E-1,4.8895234E-1,-1.2334746E0,-1.4953507E0,1.3906288E0,8.901644E-1,-3.6752224E-2,2.7338335E-1,-2.2913043E-1,7.600735E-2,-1.6422749E-1,1.3895096E-1,1.6112699E-1,-2.517704E-2,-7.0947115E-3,-3.650625E-1,1.747427E-1,-6.0624532E-2,-8.955497E-2,7.436762E-2,1.2883107E-2,1.2312481E-1,1.307761E-1,-2.2948508E-1,-1.6605318E-1,-4.955282E-2,-1.0120034E-2,-5.3126555E-2,4.4808187E-2,-1.3067794E-1,1.3872677E-1,3.475929E-2,-7.797812E-2,-2.5423494E-1,-3.1683452E-2,6.356209E-2,-3.0554305E-3,-1.0214204E-1,5.024801E-2,1.9917442E-1,7.9328425E-2,-3.1287628E-1,2.1598686E-1,-1.3877368E-3,-1.0400501E-1,8.847139E-2,-1.0724314E-1,-3.4211867E-3,2.3920178E-2,1.2633435E-1,4.184767E-2,-2.0760728E-2],"split_indices":[4,2,2,0,3,3,6,2,7,0,7,6,6,0,4,0,0,7,0,4,3,0,6,3,6,0,6,3,2,0,3,0,0,0,0,6,0,6,3,0,6,0,0,4,0,2,2,4,2,2,4,0,4,7,4,3,0,6,4,0,0,0,0,0,0,0,0,0,0,0,0,0,0,0,0,0,0,0,0,0,0,0,0,0,0,0,0,0,0,0,0,0,0,0,0,0,0,0,0,0,0,0,0,0,0],"split_type":[0,0,0,0,0,0,0,0,0,0,0,0,0,0,0,0,0,0,0,0,0,0,0,0,0,0,0,0,0,0,0,0,0,0,0,0,0,0,0,0,0,0,0,0,0,0,0,0,0,0,0,0,0,0,0,0,0,0,0,0,0,0,0,0,0,0,0,0,0,0,0,0,0,0,0,0,0,0,0,0,0,0,0,0,0,0,0,0,0,0,0,0,0,0,0,0,0,0,0,0,0,0,0,0,0],"sum_hessian":[6.371E3,1.62E2,6.209E3,1.9E1,1.43E2,2.088E3,4.121E3,5E0,1.4E1,5E1,9.3E1,1.395E3,6.93E2,2.04E2,3.917E3,2E0,3E0,1.2E1,2E0,2.7E1,2.3E1,2.2E1,7.1E1,1.57E2,1.238E3,3.79E2,3.14E2,1.38E2,6.6E1,2.441E3,1.476E3,2E0,1E1,1E0,1E0,1.9E1,8E0,9E0,1.4E1,1.4E1,8E0,6.8E1,3E0,1.44E2,1.3E1,1.26E2,1.112E3,4.1E1,3.38E2,4.1E1,2.73E2,7.7E1,6.1E1,9E0,5.7E1,1.04E2,2.337E3,7.69E2,7.07E2,1E0,1.8E1,2E0,6E0,8E0,1E0,6E0,8E0,8E0,6E0,4E0,4E0,1.2E1,5.6E1,1.06E2,3.8E1,2E0,1.1E1,3.9E1,8.7E1,7.42E2,3.7E2,1.2E1,2.9E1,6.9E1,2.69E2,2.7E1,1.4E1,2.12E2,6.1E1,4.5E1,3.2E1,5.2E1,9E0,5E0,4E0,4.2E1,1.5E1,1.5E1,8.9E1,6.2E1,2.275E3,6.92E2,7.7E1,2.24E2,4.83E2],"tree_param":{"num_deleted":"0","num_feature":"8","num_nodes":"105","size_leaf_vector":"1"}},{"base_weights":[-1.8329098E-3,1.0132096E1,-1.2150586E-1,1.2560244E1,-9.0699005E0,-1.4306505E0,5.250899E-1,1.4093943E1,-1.5119006E1,1.020566E1,-2.0408623E1,-5.9796482E-2,-3.949977E0,-1.749486E-1,2.0852933E0,-5.4013867E0,1.5837639E1,-6.1033286E-2,-2.1083018E-1,1.36199E-2,1.2699553E-1,-4.2104945E0,-2.7455065E-1,-2.2477331E1,2.067268E-1,-9.21701E0,-2.9359467E0,-5.425695E0,9.978587E-2,2.7751017E0,-3.1807973E0,6.1589823E0,-1.9014749E-1,2.7160097E1,1.3529016E1,-1.2309645E-1,5.9939038E-2,-2.9681469E1,1.863442E-1,-7.730648E-1,3.0966494E0,-1.161877E1,5.877013E0,-2.079154E0,-9.662666E0,-6.940019E-1,-1.0994496E1,1.871506E-1,-1.858378E1,1.6638143E0,6.2165813E0,1.7794533E1,-4.4607778E0,-3.656847E-2,1.0649875E-1,2.934733E-1,4.8311174E-2,1.0062501E-1,2.3956646E-1,1.19327735E-2,-3.214824E-1,-1.1615555E-2,1.1483064E-1,-4.3983355E-2,4.9796432E-2,-2.1164563E-1,-5.471106E-2,1.6726135E-1,-8.419016E-2,-3.9513968E-2,2.3858082E-2,2.0845823E-2,-2.0815195E-1,9.0019576E-2,-4.297682E-2,6.041449E-2,-1.3082714E-1,4.5877848E-2,-9.955243E-4,5.7696164E-2,-2.6466763E-1,6.0361475E-3,5.2298147E-2,1.1378504E-1,2.6881237E-2,2.6216245E-1,-2.4789579E-1,-6.327703E-2,6.864289E-2],"categories":[],"categories_nodes":[],"categories_segments":[],"categories_sizes":[],"default_left":[0,0,0,0,0,0,0,0,0,0,0,0,0,0,0,0,0,0,0,0,0,0,0,0,0,0,0,0,0,0,0,0,0,0,0,0,0,0,0,0,0,0,0,0,0,0,0,0,0,0,0,0,0,0,0,0,0,0,0,0,0,0,0,0,0,0,0,0,0,0,0,0,0,0,0,0,0,0,0,0,0,0,0,0,0,0,0,0,0],"id":12,"left_children":[1,3,5,7,9,11,13,15,17,19,21,23,25,27,29,31,33,-1,-1,-1,-1,35,-1,37,39,41,43,45,47,49,51,53,-1,55,57,-1,-1,59,-1,61,63,65,67,69,71,73,75,77,79,81,83,85,87,-1,-1,-1,-1,-1,-1,-1,-1,-1,-1,-1,-1,-1,-1,-1,-1,-1,-1,-1,-1,-1,-1,-1,-1,-1,-1,-1,-1,-1,-1,-1,-1,-1,-1,-1,-1],"loss_changes":[7.793196E3,3.6108164E3,5.3767925E3,3.0573467E3,2.1753257E3,7.2523833E3,4.6444097E3,2.2611553E3,8.6401855E1,7.092398E1,5.692356E2,8.136343E3,3.9252285E3,4.2359E3,4.792952E3,1.0613646E3,1.1747686E3,0E0,0E0,0E0,0E0,3.2172372E2,0E0,5.2918916E3,3.8136223E3,4.382299E3,3.564748E3,3.8394497E3,4.559185E3,4.445167E3,4.187124E3,2.152723E2,0E0,2.9776758E2,1.6024609E3,0E0,0E0,1.1046152E3,0E0,4.8032993E3,4.8344395E3,5.9286943E3,2.7775068E3,4.6322266E3,9.214198E3,2.8339783E3,2.4625474E3,3.506652E3,2.6484092E3,3.3313967E3,5.142084E3,3.8775696E3,3.109178E3,0E0,0E0,0E0,0E0,0E0,0E0,0E0,0E0,0E0,0E0,0E0,0E0,0E0,0E0,0E0,0E0,0E0,0E0,0E0,0E0,0E0,0E0,0E0,0E0,0E0,0E0,0E0,0E0,0E0,0E0,0E0,0E0,0E0,0E0,0E0,0E0],"parents":[2147483647,0,0,1,1,2,2,3,3,4,4,5,5,6,6,7,7,8,8,9,9,10,10,11,11,12,12,13,13,14,14,15,15,16,16,21,21,23,23,24,24,25,25,26,26,27,27,28,28,29,29,30,30,31,31,33,33,34,34,37,37,39,39,40,40,41,41,42,42,43,43,44,44,45,45,46,46,47,47,48,48,49,49,50,50,51,51,52,52],"right_children":[2,4,6,8,10,12,14,16,18,20,22,24,26,28,30,32,34,-1,-1,-1,-1,36,-1,38,40,42,44,46,48,50,52,54,-1,56,58,-1,-1,60,-1,62,64,66,68,70,72,74,76,78,80,82,84,86,88,-1,-1,-1,-1,-1,-1,-1,-1,-1,-1,-1,-1,-1,-1,-1,-1,-1,-1,-1,-1,-1,-1,-1,-1,-1,-1,-1,-1,-1,-1,-1,-1,-1,-1,-1,-1],"split_conditions":[-1.7030743E0,1.3656533E0,-5.7906276E-1,1.7025388E0,-1.1990333E0,5.515282E-1,6.339306E-1,-1.4818716E0,1.7146726E0,-1.2746143E0,1.4298661E0,-1.6834197E0,-1.1291803E0,-1.568585E0,1.3061365E0,-1.6339755E0,-1.5429032E0,-6.1033286E-2,-2.1083018E-1,1.36199E-2,1.2699553E-1,1.7315039E-1,-2.7455065E-1,2.9071775E-1,1.3309714E0,1.2774692E0,1.5912676E0,7.307249E-1,1.7181025E0,5.6596875E-1,-3.899671E-1,-1.2902453E0,-1.9014749E-1,1.0848165E0,1.0094444E0,-1.2309645E-1,5.9939038E-2,-1.6971766E0,1.863442E-1,4.8863754E-1,-1.0122986E0,-4.104587E-1,-1.4207723E0,1.2968887E0,4.3481505E-1,-4.6134126E-1,-1.5203948E0,-1.5078475E0,-1.1199433E0,1.2348115E0,8.99779E-1,2.6903242E-1,1.6670814E0,-3.656847E-2,1.0649875E-1,2.934733E-1,4.8311174E-2,1.0062501E-1,2.3956646E-1,1.19327735E-2,-3.214824E-1,-1.1615555E-2,1.1483064E-1,-4.3983355E-2,4.9796432E-2,-2.1164563E-1,-5.471106E-2,1.6726135E-1,-8.419016E-2,-3.9513968E-2,2.3858082E-2,2.0845823E-2,-2.0815195E-1,9.0019576E-2,-4.297682E-2,6.041449E-2,-1.3082714E-1,4.5877848E-2,-9.955243E-4,5.7696164E-2,-2.6466763E-1,6.0361475E-3,5.2298147E-2,1.1378504E-1,2.6881237E-2,2.6216245E-1,-2.4789579E-1,-6.327703E-2,6.864289E-2],"split_indices":[4,2,2,1,6,6,6,6,1,1,2,5,4,1,4,6,2,0,0,0,0,1,0,6,7,5,6,2,2,4,2,2,0,1,1,0,0,2,0,6,5,1,4,6,7,7,6,5,5,2,4,1,4,0,0,0,0,0,0,0,0,0,0,0,0,0,0,0,0,0,0,0,0,0,0,0,0,0,0,0,0,0,0,0,0,0,0,0,0],"split_type":[0,0,0,0,0,0,0,0,0,0,0,0,0,0,0,0,0,0,0,0,0,0,0,0,0,0,0,0,0,0,0,0,0,0,0,0,0,0,0,0,0,0,0,0,0,0,0,0,0,0,0,0,0,0,0,0,0,0,0,0,0,0,0,0,0,0,0,0,0,0,0,0,0,0,0,0,0,0,0,0,0,0,0,0,0,0,0,0,0],"sum_hessian":[6.424E3,7.4E1,6.35E3,6.6E1,8E0,2.099E3,4.251E3,6.3E1,3E0,3E0,5E0,1.36E3,7.39E2,2.935E3,1.316E3,5E0,5.8E1,2E0,1E0,1E0,2E0,2E0,3E0,1.5E1,1.345E3,1.18E2,6.21E2,1.45E2,2.79E3,1.164E3,1.52E2,3E0,2E0,8E0,5E1,1E0,1E0,1.3E1,2E0,1.005E3,3.4E2,1.02E2,1.6E1,5.52E2,6.9E1,7.9E1,6.6E1,2.778E3,1.2E1,8.81E2,2.83E2,8E0,1.44E2,1E0,2E0,7E0,1E0,3.9E1,1.1E1,1E0,1.2E1,9.75E2,3E1,6.8E1,2.72E2,3.9E1,6.3E1,9E0,7E0,3.89E2,1.63E2,3.4E1,3.5E1,2.1E1,5.8E1,7E0,5.9E1,1.69E2,2.609E3,3E0,9E0,6.8E2,2.01E2,1.14E2,1.69E2,7E0,1E0,1.24E2,2E1],"tree_param":{"num_deleted":"0","num_feature":"8","num_nodes":"89","size_leaf_vector":"1"}},{"base_weights":[-8.25726E-2,1.1786862E1,-1.796511E-1,1.4590575E1,-8.321374E0,-1.1230655E0,2.8766084E-1,-2.0549972E-1,1.5828142E1,4.939952E0,-2.7649793E-1,-7.406633E-1,-1.0319217E1,-6.2760913E-1,1.4394941E0,2.0782248E1,5.549935E0,-1.3023613E-1,1.2686747E1,-1.1886065E0,7.2130404E0,-1.3432793E1,1.4064527E1,-2.1217043E0,1.0333513E0,2.762073E0,-1.4294644E-2,2.7581623E1,1.3108944E1,-1.2751917E1,1.5028224E1,1.3551807E-2,1.6012208E-1,-1.0436317E0,-1.2573975E1,1.0625933E1,-1.6069173E0,-4.5844684E0,-2.1060465E1,1.9779926E1,-5.8647118E0,7.8872843E0,-2.7141619E0,1.4420393E0,-1.2509433E1,1.1929987E1,2.331373E0,1.0878849E0,-5.104897E0,-3.638563E-2,3.0071533E-1,1.9300331E-1,2.3913966E-2,-1.6632812E-1,3.3262786E-2,2.1074325E-1,-8.210344E-3,1.7935097E-2,-1.5748302E-2,1.889968E-2,-1.8640889E-1,1.6870767E-2,1.559795E-1,9.985324E-2,-1.1740841E-1,-1.3260126E-1,4.8278645E-2,-6.376235E-2,-2.3982082E-1,4.0857694E-3,2.2488894E-1,-8.5438386E-2,-2.5322915E-3,1.0520318E-1,-1.7312923E-1,-6.105764E-2,-7.7313483E-3,2.0200263E-1,1.2322793E-2,-4.983635E-2,-2.5264275E-1,-8.673944E-2,1.674958E-1,2.027816E-2,1.5562402E-1,-1.4700025E-2,2.8392201E-2,2.3777137E-2,-8.527699E-2],"categories":[],"categories_nodes":[],"categories_segments":[],"categories_sizes":[],"default_left":[0,0,0,0,0,0,0,0,0,0,0,0,0,0,0,0,0,0,0,0,0,0,0,0,0,0,0,0,0,0,0,0,0,0,0,0,0,0,0,0,0,0,0,0,0,0,0,0,0,0,0,0,0,0,0,0,0,0,0,0,0,0,0,0,0,0,0,0,0,0,0,0,0,0,0,0,0,0,0,0,0,0,0,0,0,0,0,0,0],"id":13,"left_children":[1,3,5,7,9,11,13,-1,15,17,-1,19,21,23,25,27,29,-1,31,33,35,37,39,41,43,45,47,49,51,53,55,-1,-1,57,59,61,63,65,67,69,71,73,75,77,79,81,83,85,87,-1,-1,-1,-1,-1,-1,-1,-1,-1,-1,-1,-1,-1,-1,-1,-1,-1,-1,-1,-1,-1,-1,-1,-1,-1,-1,-1,-1,-1,-1,-1,-1,-1,-1,-1,-1,-1,-1,-1,-1],"loss_changes":[7.385844E3,3.0530542E3,2.802926E3,2.325753E3,1.930832E3,7.3983774E3,4.4835254E3,0E0,2.1760293E3,8.610275E2,0E0,7.216135E3,6.56626E3,5.8836626E3,3.6205789E3,1.2036436E3,2.9671624E3,0E0,1.2903131E2,3.1494126E3,3.268045E3,4.9653594E3,1.2550391E3,7.4219233E3,6.233589E3,3.8655283E3,5.044014E3,1.2754492E3,1.0155491E3,4.2971222E2,1.0713911E3,0E0,0E0,2.855737E3,2.1412664E3,3.440329E3,3.7589578E3,3.003713E3,1.5631523E3,4.106223E2,4.2938072E1,4.826847E3,7.7568623E3,4.2678916E3,3.0417744E3,4.514599E3,3.7558794E3,3.3146858E3,4.1181157E3,0E0,0E0,0E0,0E0,0E0,0E0,0E0,0E0,0E0,0E0,0E0,0E0,0E0,0E0,0E0,0E0,0E0,0E0,0E0,0E0,0E0,0E0,0E0,0E0,0E0,0E0,0E0,0E0,0E0,0E0,0E0,0E0,0E0,0E0,0E0,0E0,0E0,0E0,0E0,0E0],"parents":[2147483647,0,0,1,1,2,2,3,3,4,4,5,5,6,6,8,8,9,9,11,11,12,12,13,13,14,14,15,15,16,16,18,18,19,19,20,20,21,21,22,22,23,23,24,24,25,25,26,26,27,27,28,28,29,29,30,30,33,33,34,34,35,35,36,36,37,37,38,38,39,39,40,40,41,41,42,42,43,43,44,44,45,45,46,46,47,47,48,48],"right_children":[2,4,6,8,10,12,14,-1,16,18,-1,20,22,24,26,28,30,-1,32,34,36,38,40,42,44,46,48,50,52,54,56,-1,-1,58,60,62,64,66,68,70,72,74,76,78,80,82,84,86,88,-1,-1,-1,-1,-1,-1,-1,-1,-1,-1,-1,-1,-1,-1,-1,-1,-1,-1,-1,-1,-1,-1,-1,-1,-1,-1,-1,-1,-1,-1,-1,-1,-1,-1,-1,-1,-1,-1,-1,-1],"split_conditions":[-1.7174438E0,1.4298661E0,-5.7906276E-1,-1.7001745E0,5.3514946E-1,1.5777102E0,2.1195209E-1,-2.0549972E-1,1.3220453E-1,-1.3798785E0,-2.7649793E-1,1.5470381E0,1.2774692E0,1.0459776E-1,1.0054883E0,-1.729331E0,6.972476E-1,-1.3023613E-1,-1.2746143E0,-5.9432566E-1,6.897648E-1,-1.1721419E0,5.9707046E-1,-1.6145811E0,1.6107833E-1,-4.789616E-1,1.1456522E0,-1.6980522E0,9.167499E-1,4.1258585E-1,4.62824E-1,1.3551807E-2,1.6012208E-1,-1.5429032E0,-2.518079E-1,-6.2661415E-1,1.6376548E0,1.2613659E-1,-8.9462763E-1,-1.725072E0,1.0209483E0,1.5897726E0,-8.9462763E-1,-1.6834197E0,2.2081853E-1,4.2649475E-1,1.6490229E0,-3.227608E-1,-8.7799495E-1,-3.638563E-2,3.0071533E-1,1.9300331E-1,2.3913966E-2,-1.6632812E-1,3.3262786E-2,2.1074325E-1,-8.210344E-3,1.7935097E-2,-1.5748302E-2,1.889968E-2,-1.8640889E-1,1.6870767E-2,1.559795E-1,9.985324E-2,-1.1740841E-1,-1.3260126E-1,4.8278645E-2,-6.376235E-2,-2.3982082E-1,4.0857694E-3,2.2488894E-1,-8.5438386E-2,-2.5322915E-3,1.0520318E-1,-1.7312923E-1,-6.105764E-2,-7.7313483E-3,2.0200263E-1,1.2322793E-2,-4.983635E-2,-2.5264275E-1,-8.673944E-2,1.674958E-1,2.027816E-2,1.5562402E-1,-1.4700025E-2,2.8392201E-2,2.3777137E-2,-8.527699E-2],"split_indices":[4,2,2,3,1,6,4,0,3,1,0,3,5,6,4,4,3,0,1,2,4,2,1,4,4,2,3,6,1,1,5,0,0,2,4,4,3,1,4,1,1,2,4,5,1,4,6,5,6,0,0,0,0,0,0,0,0,0,0,0,0,0,0,0,0,0,0,0,0,0,0,0,0,0,0,0,0,0,0,0,0,0,0,0,0,0,0,0,0],"split_type":[0,0,0,0,0,0,0,0,0,0,0,0,0,0,0,0,0,0,0,0,0,0,0,0,0,0,0,0,0,0,0,0,0,0,0,0,0,0,0,0,0,0,0,0,0,0,0,0,0,0,0,0,0,0,0,0,0,0,0,0,0,0,0,0,0,0,0,0,0,0,0,0,0,0,0,0,0,0,0,0,0,0,0,0,0,0,0,0,0],"sum_hessian":[6.407E3,5.1E1,6.356E3,4.5E1,6E0,2.105E3,4.251E3,1E0,4.4E1,4E0,2E0,2.022E3,8.3E1,2.369E3,1.882E3,2.9E1,1.5E1,1E0,3E0,1.915E3,1.07E2,7.4E1,9E0,1.247E3,1.122E3,9.85E2,8.97E2,1.4E1,1.5E1,5E0,1E1,1E0,2E0,1.892E3,2.3E1,7.7E1,3E1,3.5E1,3.9E1,7E0,2E0,6.9E1,1.178E3,1.09E3,3.2E1,4.3E1,9.42E2,7.38E2,1.59E2,1E0,1.3E1,9E0,6E0,4E0,1E0,7E0,3E0,2.98E2,1.594E3,7E0,1.6E1,2.8E1,4.9E1,1.4E1,1.6E1,1.8E1,1.7E1,7E0,3.2E1,1E0,6E0,1E0,1E0,6.3E1,6E0,4.28E2,7.5E2,1.1E1,1.079E3,2.1E1,1.1E1,8E0,3.5E1,9.22E2,2E1,3E2,4.38E2,5E1,1.09E2],"tree_param":{"num_deleted":"0","num_feature":"8","num_nodes":"89","size_leaf_vector":"1"}},{"base_weights":[-1.121485E-1,3.9988372E0,-2.966916E-1,2.0772518E1,3.1608875E0,-3.9469774E0,-1.4829099E-1,-3.620371E-2,2.3106956E1,2.4365697E0,2.1387335E1,3.1015801E0,-7.3389344E0,-7.631912E0,-8.335682E-2,3.3275127E-2,2.4602586E-1,-5.8880687E-2,7.20128E0,2.9232004E1,-6.660896E0,1.57529955E1,-1.7507082E0,-1.2367714E1,-3.0889145E-1,5.306696E-1,-1.4355843E1,4.6354356E0,-1.9673136E-1,-2.656419E0,5.676419E0,1.7412975E1,4.137002E0,3.0913848E-1,8.729541E-2,-9.362704E-2,-6.286392E-3,5.475231E0,2.553301E1,-5.420414E0,2.1862503E1,2.2550124E-1,-1.336111E1,-3.7031553E0,1.1166055E1,2.2140081E1,-7.9024725E0,-1.7730076E1,1.0322075E1,6.138074E0,-1.5212146E1,-8.694087E-2,-4.289873E0,-3.482397E-2,2.1548054E-1,8.5615665E-2,-1.1622729E-1,2.012841E-1,-4.683962E-2,-4.8376653E-2,1.00216135E-1,-1.2470018E-1,1.6006608E-1,2.80601E-1,1.3106345E-3,1.6622287E-1,-7.650054E-2,-1.2363059E-1,2.851802E-1,-1.621977E-1,-2.7876176E-2,-3.020665E-3,-1.8637739E-1,2.0300126E-1,-7.440754E-2,-1.435465E-1,3.0614978E-1,-2.2123441E-1,-3.583382E-2,-2.9470924E-1,-1.2471337E-1,-2.455965E-2,1.5400076E-1,-2.6322958E-1,6.856538E-2,-2.6833454E-1,2.0848721E-1,1.1233276E-1,-1.3365266E-3,-5.77192E-2,1.496253E-1],"categories":[],"categories_nodes":[],"categories_segments":[],"categories_sizes":[],"default_left":[0,0,0,0,0,0,0,0,0,0,0,0,0,0,0,0,0,0,0,0,0,0,0,0,0,0,0,0,0,0,0,0,0,0,0,0,0,0,0,0,0,0,0,0,0,0,0,0,0,0,0,0,0,0,0,0,0,0,0,0,0,0,0,0,0,0,0,0,0,0,0,0,0,0,0,0,0,0,0,0,0,0,0,0,0,0,0,0,0,0,0],"id":14,"left_children":[1,3,5,7,9,11,13,-1,15,17,19,21,23,25,27,-1,-1,29,31,33,35,37,39,41,43,45,47,49,51,53,55,57,59,-1,-1,-1,-1,61,63,65,67,-1,69,71,73,75,77,79,81,83,85,87,89,-1,-1,-1,-1,-1,-1,-1,-1,-1,-1,-1,-1,-1,-1,-1,-1,-1,-1,-1,-1,-1,-1,-1,-1,-1,-1,-1,-1,-1,-1,-1,-1,-1,-1,-1,-1,-1,-1],"loss_changes":[4.89147E3,3.8277139E3,3.341732E3,8.239238E2,3.4463494E3,5.784688E3,2.8810046E3,0E0,2.7312695E2,3.0442893E3,2.395002E3,4.877256E3,5.7586426E3,2.8067349E3,3.1466584E3,0E0,0E0,2.5327837E3,2.6816118E3,5.9921875E0,4.3008255E1,2.0715679E3,5.144409E3,3.596584E3,2.7288303E3,4.5486074E3,2.514544E3,4.20905E3,2.5804624E3,2.414145E3,2.7447698E3,1.2943369E3,3.692539E3,0E0,0E0,0E0,0E0,2.467461E3,7.024453E2,2.6336738E3,2.1748801E3,0E0,2.7658066E3,2.7372375E3,2.8703433E3,2.6044907E3,1.026313E3,1.1760093E3,2.973697E2,3.1890361E3,4.7501875E3,2.959539E3,4.366307E3,0E0,0E0,0E0,0E0,0E0,0E0,0E0,0E0,0E0,0E0,0E0,0E0,0E0,0E0,0E0,0E0,0E0,0E0,0E0,0E0,0E0,0E0,0E0,0E0,0E0,0E0,0E0,0E0,0E0,0E0,0E0,0E0,0E0,0E0,0E0,0E0,0E0,0E0],"parents":[2147483647,0,0,1,1,2,2,3,3,4,4,5,5,6,6,8,8,9,9,10,10,11,11,12,12,13,13,14,14,17,17,18,18,19,19,20,20,21,21,22,22,23,23,24,24,25,25,26,26,27,27,28,28,29,29,30,30,31,31,32,32,37,37,38,38,39,39,40,40,42,42,43,43,44,44,45,45,46,46,47,47,48,48,49,49,50,50,51,51,52,52],"right_children":[2,4,6,8,10,12,14,-1,16,18,20,22,24,26,28,-1,-1,30,32,34,36,38,40,42,44,46,48,50,52,54,56,58,60,-1,-1,-1,-1,62,64,66,68,-1,70,72,74,76,78,80,82,84,86,88,90,-1,-1,-1,-1,-1,-1,-1,-1,-1,-1,-1,-1,-1,-1,-1,-1,-1,-1,-1,-1,-1,-1,-1,-1,-1,-1,-1,-1,-1,-1,-1,-1,-1,-1,-1,-1,-1,-1],"split_conditions":[-1.5850881E0,-1.5242487E0,-1.6007297E0,-1.729331E0,1.5826507E0,-4.8669165E-1,-1.6955901E0,-3.620371E-2,-1.5289229E0,3.08605E-1,1.3309714E0,-4.6134126E-1,7.3136616E-1,-1.7083371E0,-1.6188867E0,3.3275127E-2,2.4602586E-1,5.836791E-1,-8.974052E-1,-4.7327954E-1,6.6583353E-1,-2.2929938E-1,1.2968887E0,-1.5446543E0,8.796808E-1,-8.1929946E-1,1.0864167E0,1.4337546E0,1.6569538E0,1.6910927E0,1.3397885E-3,1.5368103E0,3.0244511E-5,3.0913848E-1,8.729541E-2,-9.362704E-2,-6.286392E-3,-1.3107024E0,1.0690379E0,-1.6062213E0,-1.7265209E0,2.2550124E-1,1.3309714E0,6.1926895E-1,1.4832171E0,-1.34103E0,-1.585311E0,-1.0420557E0,-5.09227E-1,-1.5446543E0,1.6807069E0,-1.729331E0,1.5254407E0,-3.482397E-2,2.1548054E-1,8.5615665E-2,-1.1622729E-1,2.012841E-1,-4.683962E-2,-4.8376653E-2,1.00216135E-1,-1.2470018E-1,1.6006608E-1,2.80601E-1,1.3106345E-3,1.6622287E-1,-7.650054E-2,-1.2363059E-1,2.851802E-1,-1.621977E-1,-2.7876176E-2,-3.020665E-3,-1.8637739E-1,2.0300126E-1,-7.440754E-2,-1.435465E-1,3.0614978E-1,-2.2123441E-1,-3.583382E-2,-2.9470924E-1,-1.2471337E-1,-2.455965E-2,1.5400076E-1,-2.6322958E-1,6.856538E-2,-2.6833454E-1,2.0848721E-1,1.1233276E-1,-1.3365266E-3,-5.77192E-2,1.496253E-1],"split_indices":[6,4,1,4,5,0,5,0,0,1,7,7,0,5,5,0,0,0,5,1,0,6,6,6,6,1,6,4,1,4,1,1,5,0,0,0,0,0,5,5,0,0,7,6,6,1,0,0,1,6,4,4,0,0,0,0,0,0,0,0,0,0,0,0,0,0,0,0,0,0,0,0,0,0,0,0,0,0,0,0,0,0,0,0,0,0,0,0,0,0,0],"split_type":[0,0,0,0,0,0,0,0,0,0,0,0,0,0,0,0,0,0,0,0,0,0,0,0,0,0,0,0,0,0,0,0,0,0,0,0,0,0,0,0,0,0,0,0,0,0,0,0,0,0,0,0,0,0,0,0,0,0,0,0,0,0,0,0,0,0,0,0,0,0,0,0,0,0,0,0,0,0,0,0,0,0,0,0,0,0,0,0,0,0,0],"sum_hessian":[6.445E3,2.76E2,6.169E3,1.2E1,2.64E2,2.4E2,5.929E3,1E0,1.1E1,2.55E2,9E0,7.8E1,1.62E2,5E1,5.879E3,1E0,1E1,1.68E2,8.7E1,7E0,2E0,2.1E1,5.7E1,9.4E1,6.8E1,2.3E1,2.7E1,1.37E2,5.742E3,1.16E2,5.2E1,1.9E1,6.8E1,6E0,1E0,1E0,1E0,1.1E1,1E1,5E1,7E0,2E0,9.2E1,5.3E1,1.5E1,6E0,1.7E1,2.4E1,3E0,1.28E2,9E0,5.593E3,1.49E2,1.13E2,3E0,4.5E1,7E0,1.7E1,2E0,2.7E1,4.1E1,4E0,7E0,9E0,1E0,4E0,4.6E1,1E0,6E0,7.2E1,2E1,4.4E1,9E0,1E1,5E0,1E0,5E0,3E0,1.4E1,6E0,1.8E1,1E0,2E0,2E0,1.26E2,7E0,2E0,2.2E1,5.571E3,1.39E2,1E1],"tree_param":{"num_deleted":"0","num_feature":"8","num_nodes":"91","size_leaf_vector":"1"}},{"base_weights":[3.8517413E-1,1.0486694E1,2.6307896E-1,-7.536442E0,1.2717893E1,-9.7589844E-1,6.5664244E-1,1.22595825E1,-2.5825178E1,2.3795296E1,7.262132E0,-2.7768095E0,9.952718E-1,6.63273E0,5.521056E-1,-3.602268E-2,1.7125612E1,-5.722744E-2,-2.9420102E-1,2.5329727E1,-4.213865E-2,-9.090854E0,9.87698E0,6.0634094E-1,-4.881276E0,3.6013076E-1,1.4303074E1,-2.1221883E0,1.6340004E1,-8.735415E0,6.338066E-1,2.1989176E-1,1.2674598E-2,2.7237293E-1,1.04132466E-1,-1.2871122E0,-1.462188E-1,2.1590366E1,3.6675377E0,2.5436141E0,-1.1585241E1,-2.0514204E1,-3.8148227E0,5.8228197E0,-7.710347E-1,-9.474276E0,1.7909407E1,-1.1227921E1,5.247285E0,-1.1078879E1,1.979013E1,-3.2446408E0,-1.9093006E1,3.9763258E0,4.3027732E-1,1.2922382E-2,-2.5776416E-2,3.3918536E-1,4.4166878E-2,-2.5789347E-1,8.233938E-2,-4.032628E-2,5.1745705E-2,-7.004195E-2,-2.5544173E-1,9.0474434E-2,-2.4004646E-1,-1.1549351E-1,-2.6227899E-2,-6.94736E-2,8.790771E-2,-3.913237E-2,3.477292E-2,1.19754925E-1,-1.7830591E-1,7.1021714E-3,2.1462978E-1,-2.926124E-2,-1.9237104E-1,-2.144527E-1,9.861963E-2,-2.4312055E-1,5.847257E-2,-1.5897153E-1,2.130732E-1,-6.643223E-2,1.3717483E-1,-2.3640274E-1,5.460398E-2,7.3869005E-2,-3.9284835E-3,2.9868514E-3,4.2788763E-2],"categories":[],"categories_nodes":[],"categories_segments":[],"categories_sizes":[],"default_left":[0,0,0,0,0,0,0,0,0,0,0,0,0,0,0,0,0,0,0,0,0,0,0,0,0,0,0,0,0,0,0,0,0,0,0,0,0,0,0,0,0,0,0,0,0,0,0,0,0,0,0,0,0,0,0,0,0,0,0,0,0,0,0,0,0,0,0,0,0,0,0,0,0,0,0,0,0,0,0,0,0,0,0,0,0,0,0,0,0,0,0,0,0],"id":15,"left_children":[1,3,5,7,9,11,13,15,17,19,21,23,25,27,29,-1,31,-1,-1,33,-1,35,37,39,41,43,45,47,49,51,53,-1,-1,-1,-1,55,-1,57,59,61,63,65,67,69,71,73,75,77,79,81,83,85,87,89,91,-1,-1,-1,-1,-1,-1,-1,-1,-1,-1,-1,-1,-1,-1,-1,-1,-1,-1,-1,-1,-1,-1,-1,-1,-1,-1,-1,-1,-1,-1,-1,-1,-1,-1,-1,-1,-1,-1],"loss_changes":[7.8487266E3,3.1520518E3,3.0682346E3,3.5750044E3,3.9368213E3,5.387966E3,2.979382E3,4.4761218E2,1.9296948E2,1.0522529E3,2.0995366E3,5.6489023E3,6.1227886E3,7.0035605E3,3.5673408E3,0E0,2.8063818E2,0E0,0E0,3.1391016E2,0E0,2.8331903E2,2.9028943E3,7.2330884E3,8.074246E3,4.2866787E3,2.999397E3,3.0115117E3,3.9085977E3,2.2697695E3,3.1644077E3,0E0,0E0,0E0,0E0,1.664584E1,0E0,2.8142734E3,3.978682E3,4.5885444E3,2.5068374E3,3.4158604E3,4.2016016E3,4.571325E3,7.6893423E3,1.1097354E3,1.7571953E3,1.273522E3,3.2909316E3,1.2620916E3,2.2337803E3,1.7052493E3,1.6921978E3,3.9815737E3,2.221005E3,0E0,0E0,0E0,0E0,0E0,0E0,0E0,0E0,0E0,0E0,0E0,0E0,0E0,0E0,0E0,0E0,0E0,0E0,0E0,0E0,0E0,0E0,0E0,0E0,0E0,0E0,0E0,0E0,0E0,0E0,0E0,0E0,0E0,0E0,0E0,0E0,0E0,0E0],"parents":[2147483647,0,0,1,1,2,2,3,3,4,4,5,5,6,6,7,7,8,8,9,9,10,10,11,11,12,12,13,13,14,14,16,16,19,19,21,21,22,22,23,23,24,24,25,25,26,26,27,27,28,28,29,29,30,30,35,35,37,37,38,38,39,39,40,40,41,41,42,42,43,43,44,44,45,45,46,46,47,47,48,48,49,49,50,50,51,51,52,52,53,53,54,54],"right_children":[2,4,6,8,10,12,14,16,18,20,22,24,26,28,30,-1,32,-1,-1,34,-1,36,38,40,42,44,46,48,50,52,54,-1,-1,-1,-1,56,-1,58,60,62,64,66,68,70,72,74,76,78,80,82,84,86,88,90,92,-1,-1,-1,-1,-1,-1,-1,-1,-1,-1,-1,-1,-1,-1,-1,-1,-1,-1,-1,-1,-1,-1,-1,-1,-1,-1,-1,-1,-1,-1,-1,-1,-1,-1,-1,-1,-1,-1],"split_conditions":[-1.7030743E0,-1.4963682E0,-8.703791E-1,-1.1641366E-1,-6.326526E-1,1.2834352E-1,-1.6638256E0,-1.6980522E0,-1.1232179E0,1.6633638E0,-8.835435E-1,-1.0420557E0,1.6038536E0,-1.6867197E0,-1.642034E0,-3.602268E-2,-1.6050301E0,-5.722744E-2,-2.9420102E-1,1.3309714E0,-4.213865E-2,2.1142663E-1,-2.3495074E-2,1.2357537E0,-1.5542746E0,-1.1264288E0,-1.506922E0,3.0238184E-1,-5.7531756E-1,7.4783313E-1,-7.1806884E-1,2.1989176E-1,1.2674598E-2,2.7237293E-1,1.04132466E-1,-1.3556418E0,-1.462188E-1,4.3481505E-1,3.08605E-1,-9.333374E-1,1.1456522E0,-1.5597149E0,-8.697033E-1,4.0338802E-1,6.225321E-1,-1.1806062E0,-9.895686E-1,-1.689319E-1,-1.3798785E0,1.9634718E-1,-1.683369E0,3.8740692E-1,7.059762E-1,1.13522574E-1,1.6185657E0,1.2922382E-2,-2.5776416E-2,3.3918536E-1,4.4166878E-2,-2.5789347E-1,8.233938E-2,-4.032628E-2,5.1745705E-2,-7.004195E-2,-2.5544173E-1,9.0474434E-2,-2.4004646E-1,-1.1549351E-1,-2.6227899E-2,-6.94736E-2,8.790771E-2,-3.913237E-2,3.477292E-2,1.19754925E-1,-1.7830591E-1,7.1021714E-3,2.1462978E-1,-2.926124E-2,-1.9237104E-1,-2.144527E-1,9.861963E-2,-2.4312055E-1,5.847257E-2,-1.5897153E-1,2.130732E-1,-6.643223E-2,1.3717483E-1,-2.3640274E-1,5.460398E-2,7.3869005E-2,-3.9284835E-3,2.9868514E-3,4.2788763E-2],"split_indices":[4,3,4,0,3,0,3,6,1,6,1,0,6,3,3,0,3,0,0,7,0,3,1,6,3,3,4,4,4,6,4,0,0,0,0,0,0,7,1,6,3,4,0,0,3,1,1,4,1,6,0,6,0,0,1,0,0,0,0,0,0,0,0,0,0,0,0,0,0,0,0,0,0,0,0,0,0,0,0,0,0,0,0,0,0,0,0,0,0,0,0,0,0],"split_type":[0,0,0,0,0,0,0,0,0,0,0,0,0,0,0,0,0,0,0,0,0,0,0,0,0,0,0,0,0,0,0,0,0,0,0,0,0,0,0,0,0,0,0,0,0,0,0,0,0,0,0,0,0,0,0,0,0,0,0,0,0,0,0,0,0,0,0,0,0,0,0,0,0,0,0,0,0,0,0,0,0,0,0,0,0,0,0,0,0,0,0,0,0],"sum_hessian":[6.365E3,7.5E1,6.29E3,8E0,6.7E1,1.516E3,4.774E3,4E0,4E0,2.1E1,4.6E1,7.92E2,7.24E2,8.1E1,4.693E3,1E0,3E0,1E0,3E0,2E1,1E0,6E0,4E1,3.04E2,4.88E2,6.92E2,3.2E1,4.3E1,3.8E1,4E1,4.653E3,2E0,1E0,1.7E1,3E0,3E0,3E0,1.3E1,2.7E1,2.63E2,4.1E1,3E1,4.58E2,1.18E2,5.74E2,4E0,2.8E1,1.9E1,2.4E1,4E0,3.4E1,2.7E1,1.3E1,2.66E2,4.387E3,1E0,2E0,7E0,6E0,3E0,2.4E1,7.5E1,1.88E2,3.2E1,9E0,3E0,2.7E1,6E1,3.98E2,2.2E1,9.6E1,3.3E2,2.44E2,1E0,3E0,5E0,2.3E1,1E1,9E0,3E0,2.1E1,2E0,2E0,1E0,3.3E1,2.3E1,4E0,1.1E1,2E0,1.49E2,1.17E2,4.243E3,1.44E2],"tree_param":{"num_deleted":"0","num_feature":"8","num_nodes":"93","size_leaf_vector":"1"}},{"base_weights":[2.4142735E-1,1.1371027E1,1.6950628E-1,2.279105E1,4.6054206E0,-1.1315932E0,8.0522066E-1,7.968904E0,2.9405233E-1,2.092592E1,-1.0540521E0,-1.6816174E0,4.6957817E0,8.985094E0,6.36734E-1,1.31149235E1,-1.548757E0,2.2859877E-1,4.6610888E-2,-7.0906224E0,1.2032034E1,-1.5106362E0,-1.3089509E1,-9.224178E0,6.692385E0,-1.9352512E-1,9.890186E0,-1.6584252E-1,1.9179684E0,3.258808E-2,1.5314026E-1,-3.584257E-2,1.2611217E-2,-1.3254822E1,7.888742E0,-5.3345945E-2,1.5815572E1,1.2881192E0,-2.0733583E0,-2.115701E1,-3.5107942E0,-1.312836E1,2.1179819E-1,-5.560196E0,8.821049E0,1.5965646E1,5.2247434E0,-1.0476925E0,1.7876625E0,5.360242E0,1.0929954E0,-1.9288999E-1,9.265986E-2,-1.2884718E-1,1.6303287E-1,1.9818684E-1,5.2062288E-2,-2.0028166E-2,5.925791E-2,-1.4776415E-1,-1.8825388E-2,-2.4004796E-1,-1.7642625E-2,-9.65249E-2,9.474756E-2,-5.4671153E-2,-3.6550918E-1,2.3082942E-2,-1.8930824E-1,1.993608E-1,5.5920668E-2,8.604973E-2,2.8326455E-1,-1.4208958E-1,1.0572076E-1,-6.743132E-2,-6.9940845E-3,2.3982324E-2,-6.367021E-2,6.785724E-2,-7.2802395E-2,8.825087E-3,1.09843664E-1],"categories":[],"categories_nodes":[],"categories_segments":[],"categories_sizes":[],"default_left":[0,0,0,0,0,0,0,0,0,0,0,0,0,0,0,0,0,0,0,0,0,0,0,0,0,0,0,0,0,0,0,0,0,0,0,0,0,0,0,0,0,0,0,0,0,0,0,0,0,0,0,0,0,0,0,0,0,0,0,0,0,0,0,0,0,0,0,0,0,0,0,0,0,0,0,0,0,0,0,0,0,0,0],"id":16,"left_children":[1,3,5,7,9,11,13,15,-1,17,19,21,23,25,27,29,31,-1,-1,33,35,37,39,41,43,-1,45,47,49,-1,-1,-1,-1,51,53,-1,55,57,59,61,63,65,-1,67,69,71,73,75,77,79,81,-1,-1,-1,-1,-1,-1,-1,-1,-1,-1,-1,-1,-1,-1,-1,-1,-1,-1,-1,-1,-1,-1,-1,-1,-1,-1,-1,-1,-1,-1,-1,-1],"loss_changes":[5.111365E3,3.062836E3,5.251518E3,1.2362192E3,2.5159236E3,6.687527E3,5.872302E3,3.141802E2,0E0,1.13636475E2,1.7442113E3,3.6959941E3,5.064406E3,2.3971406E3,4.2985645E3,3.679297E1,2.167871E1,0E0,0E0,1.4896008E3,5.443206E2,2.960373E3,2.0894585E3,3.008219E3,4.169943E3,0E0,2.297538E3,4.4309307E3,4.5661904E3,0E0,0E0,0E0,0E0,1.6735719E3,1.0840592E3,0E0,1.5164185E2,4.819487E3,3.7633047E3,7.860449E2,1.2080013E3,3.5685374E3,0E0,2.5686575E3,4.7336973E3,3.031671E3,5.242223E3,3.5102773E3,3.9984739E3,5.653245E3,2.6969084E3,0E0,0E0,0E0,0E0,0E0,0E0,0E0,0E0,0E0,0E0,0E0,0E0,0E0,0E0,0E0,0E0,0E0,0E0,0E0,0E0,0E0,0E0,0E0,0E0,0E0,0E0,0E0,0E0,0E0,0E0,0E0,0E0],"parents":[2147483647,0,0,1,1,2,2,3,3,4,4,5,5,6,6,7,7,9,9,10,10,11,11,12,12,13,13,14,14,15,15,16,16,19,19,20,20,21,21,22,22,23,23,24,24,26,26,27,27,28,28,33,33,34,34,36,36,37,37,38,38,39,39,40,40,41,41,43,43,44,44,45,45,46,46,47,47,48,48,49,49,50,50],"right_children":[2,4,6,8,10,12,14,16,-1,18,20,22,24,26,28,30,32,-1,-1,34,36,38,40,42,44,-1,46,48,50,-1,-1,-1,-1,52,54,-1,56,58,60,62,64,66,-1,68,70,72,74,76,78,80,82,-1,-1,-1,-1,-1,-1,-1,-1,-1,-1,-1,-1,-1,-1,-1,-1,-1,-1,-1,-1,-1,-1,-1,-1,-1,-1,-1,-1,-1,-1,-1,-1],"split_conditions":[-1.7174438E0,-1.05954E0,-5.7906276E-1,-6.0899776E-1,-1.4172114E0,1.4314133E0,-1.6698605E0,-1.2112982E0,2.9405233E-1,8.734931E-1,1.3309714E0,-5.9432566E-1,-1.254845E0,-1.6298219E0,3.6329353E-1,-1.5289229E0,-9.7117156E-1,2.2859877E-1,4.6610888E-2,1.0952141E0,-1.3729109E0,-1.5429032E0,1.7108597E-1,-7.638272E-1,-1.2817285E0,-1.9352512E-1,-5.821657E-1,6.972476E-1,6.2749815E-1,3.258808E-2,1.5314026E-1,-3.584257E-2,1.2611217E-2,6.972476E-1,-1.3798785E0,-5.3345945E-2,1.0717303E-1,4.0075225E-1,-1.5307752E0,1.5254407E0,4.3481505E-1,-8.468553E-1,2.1179819E-1,5.6522924E-1,-6.6537344E-1,-9.755598E-1,-1.0294253E0,-1.4481571E0,1.6505797E0,1.3330812E0,1.6952271E0,-1.9288999E-1,9.265986E-2,-1.2884718E-1,1.6303287E-1,1.9818684E-1,5.2062288E-2,-2.0028166E-2,5.925791E-2,-1.4776415E-1,-1.8825388E-2,-2.4004796E-1,-1.7642625E-2,-9.65249E-2,9.474756E-2,-5.4671153E-2,-3.6550918E-1,2.3082942E-2,-1.8930824E-1,1.993608E-1,5.5920668E-2,8.604973E-2,2.8326455E-1,-1.4208958E-1,1.0572076E-1,-6.743132E-2,-6.9940845E-3,2.3982324E-2,-6.367021E-2,6.785724E-2,-7.2802395E-2,8.825087E-3,1.09843664E-1],"split_indices":[4,3,2,0,2,3,0,0,0,1,7,2,1,1,4,0,0,0,0,2,2,2,3,2,0,0,1,3,4,0,0,0,0,3,1,0,3,4,2,0,7,2,0,1,1,1,3,0,3,3,2,0,0,0,0,0,0,0,0,0,0,0,0,0,0,0,0,0,0,0,0,0,0,0,0,0,0,0,0,0,0,0,0],"split_type":[0,0,0,0,0,0,0,0,0,0,0,0,0,0,0,0,0,0,0,0,0,0,0,0,0,0,0,0,0,0,0,0,0,0,0,0,0,0,0,0,0,0,0,0,0,0,0,0,0,0,0,0,0,0,0,0,0,0,0,0,0,0,0,0,0,0,0,0,0,0,0,0,0,0,0,0,0,0,0,0,0,0,0],"sum_hessian":[6.387E3,4E1,6.347E3,1.4E1,2.6E1,2.083E3,4.264E3,5E0,9E0,6E0,2E1,1.904E3,1.79E2,8.5E1,4.179E3,3E0,2E0,5E0,1E0,1.4E1,6E0,1.877E3,2.7E1,2.2E1,1.57E2,2E0,8.3E1,2.57E3,1.609E3,1E0,2E0,1E0,1E0,1E1,4E0,1E0,5E0,3.14E2,1.563E3,1.4E1,1.3E1,2E1,2E0,2.3E1,1.34E2,3.5E1,4.8E1,1.771E3,7.99E2,3.1E2,1.299E3,8E0,2E0,1E0,3E0,3E0,2E0,1.84E2,1.3E2,2.2E1,1.541E3,1.2E1,2E0,9E0,4E0,1.6E1,4E0,1.5E1,8E0,2.9E1,1.05E2,2.3E1,1.2E1,1E1,3.8E1,1.01E2,1.67E3,7.44E2,5.5E1,2.79E2,3.1E1,1.273E3,2.6E1],"tree_param":{"num_deleted":"0","num_feature":"8","num_nodes":"83","size_leaf_vector":"1"}},{"base_weights":[2.3981266E-1,8.87909E0,1.3918951E-1,1.300764E1,-9.448913E0,2.9854453E0,-1.2847815E-1,1.4434958E1,-1.0583557E1,-2.638323E1,2.8905115E0,2.4286375E0,2.227469E1,-5.54671E-1,1.1433777E0,1.7301428E1,3.40218E0,-4.8042297E-1,-2.044648E-1,-3.3954495E-1,5.7365436E-2,2.436449E1,-1.19072275E1,1.1516052E0,9.517735E0,2.8771395E1,3.5270047E0,-5.805378E0,-4.3577293E-1,5.8000326E0,4.3894023E-1,-1.7567377E0,1.9727617E1,-4.322797E0,2.1864076E-1,-2.1000538E-2,1.3794193E-2,2.9394132E-1,4.637783E-2,-1.5331076E1,2.6060065E-2,-4.150369E0,3.6675549E0,1.1759375E1,-5.612499E0,-2.1738815E-3,3.1692013E-1,-6.2798467E0,1.21581875E-1,-7.546385E0,1.4071373E1,3.2089514E-1,-1.2394028E0,1.1087153E0,1.2178094E1,-1.7137379E1,6.230025E-1,-8.199775E-2,1.5229225E-1,1.6121902E-1,2.5976267E-1,-1.21533096E-1,5.9383783E-2,-1.9495788E-1,-6.0560033E-2,-9.084357E-2,6.906279E-2,2.5389632E-2,1.5110233E-1,1.7846076E-1,5.1627845E-2,5.019975E-2,-1.9375463E-1,-9.3238644E-2,-9.59053E-4,-1.961948E-1,-4.1615967E-2,2.9375622E-1,-9.863014E-3,-1.692263E-2,1.2724761E-2,-6.542985E-2,-5.9365085E-3,2.5438057E-2,-2.0371018E-1,-1.1962609E-1,1.360606E-1,-2.3007672E-1,-3.1433746E-2,-2.4579298E-2,1.6186263E-2],"categories":[],"categories_nodes":[],"categories_segments":[],"categories_sizes":[],"default_left":[0,0,0,0,0,0,0,0,0,0,0,0,0,0,0,0,0,0,0,0,0,0,0,0,0,0,0,0,0,0,0,0,0,0,0,0,0,0,0,0,0,0,0,0,0,0,0,0,0,0,0,0,0,0,0,0,0,0,0,0,0,0,0,0,0,0,0,0,0,0,0,0,0,0,0,0,0,0,0,0,0,0,0,0,0,0,0,0,0,0,0],"id":17,"left_children":[1,3,5,7,9,11,13,15,17,19,21,23,25,27,29,31,33,35,-1,-1,-1,37,39,41,43,45,47,49,51,53,55,57,59,61,-1,-1,-1,-1,-1,63,-1,65,67,69,71,-1,-1,73,-1,75,77,79,81,83,85,87,89,-1,-1,-1,-1,-1,-1,-1,-1,-1,-1,-1,-1,-1,-1,-1,-1,-1,-1,-1,-1,-1,-1,-1,-1,-1,-1,-1,-1,-1,-1,-1,-1,-1,-1],"loss_changes":[5.5119365E3,5.646677E3,4.7771875E3,2.1731016E3,3.0016968E3,5.734981E3,3.107698E3,1.7437715E3,3.887628E2,1.6539053E3,3.1500105E3,4.741867E3,1.7254966E3,2.6782095E3,4.7178374E3,2.1153975E3,1.9485443E3,1.1933628E1,0E0,0E0,0E0,2.6054956E2,3.380995E2,5.964639E3,2.7793232E3,9.382051E2,4.9957523E2,3.3937166E3,2.554338E3,5.6416626E3,4.0578335E3,7.815234E2,4.8244727E2,8.756736E2,0E0,0E0,0E0,0E0,0E0,7.507349E1,0E0,7.918425E3,3.8746118E3,2.7184688E3,1.7069423E3,0E0,0E0,5.557789E1,0E0,3.5144604E3,1.8725444E3,4.1476914E3,6.972429E3,3.44261E3,2.9205322E3,9.9561426E2,3.8045486E3,0E0,0E0,0E0,0E0,0E0,0E0,0E0,0E0,0E0,0E0,0E0,0E0,0E0,0E0,0E0,0E0,0E0,0E0,0E0,0E0,0E0,0E0,0E0,0E0,0E0,0E0,0E0,0E0,0E0,0E0,0E0,0E0,0E0,0E0],"parents":[2147483647,0,0,1,1,2,2,3,3,4,4,5,5,6,6,7,7,8,8,9,9,10,10,11,11,12,12,13,13,14,14,15,15,16,16,17,17,21,21,22,22,23,23,24,24,25,25,26,26,27,27,28,28,29,29,30,30,31,31,32,32,33,33,39,39,41,41,42,42,43,43,44,44,47,47,49,49,50,50,51,51,52,52,53,53,54,54,55,55,56,56],"right_children":[2,4,6,8,10,12,14,16,18,20,22,24,26,28,30,32,34,36,-1,-1,-1,38,40,42,44,46,48,50,52,54,56,58,60,62,-1,-1,-1,-1,-1,64,-1,66,68,70,72,-1,-1,74,-1,76,78,80,82,84,86,88,90,-1,-1,-1,-1,-1,-1,-1,-1,-1,-1,-1,-1,-1,-1,-1,-1,-1,-1,-1,-1,-1,-1,-1,-1,-1,-1,-1,-1,-1,-1,-1,-1,-1,-1],"split_conditions":[-1.7030743E0,1.395168E0,-1.4361882E0,1.4806234E0,1.5754842E0,1.6330999E0,8.734931E-1,1.3220453E-1,1.6572217E0,1.398727E0,9.415727E-2,1.2463292E0,6.225321E-1,-1.3715122E0,-1.2986811E0,-1.5825361E0,1.0946823E0,1.6126015E0,-2.044648E-1,-3.3954495E-1,5.7365436E-2,2.1709739E-1,1.0480405E0,-6.0602605E-1,1.2996862E0,-1.1763357E0,3.2507095E-2,1.46753E0,6.3568965E-2,-1.4831629E0,-1.2589836E0,1.1408923E0,4.5129293E-1,3.08605E-1,2.1864076E-1,-2.1000538E-2,1.3794193E-2,2.9394132E-1,4.637783E-2,-1.729331E0,2.6060065E-2,4.8808473E-1,1.4273847E0,-3.3692664E-1,3.632545E-1,-2.1738815E-3,3.1692013E-1,6.6583353E-1,1.21581875E-1,-1.078296E0,3.9225358E-1,-6.5098816E-1,2.5588775E-1,1.5702932E0,-1.585311E0,1.3664261E0,-8.538827E-1,-8.199775E-2,1.5229225E-1,1.6121902E-1,2.5976267E-1,-1.21533096E-1,5.9383783E-2,-1.9495788E-1,-6.0560033E-2,-9.084357E-2,6.906279E-2,2.5389632E-2,1.5110233E-1,1.7846076E-1,5.1627845E-2,5.019975E-2,-1.9375463E-1,-9.3238644E-2,-9.59053E-4,-1.961948E-1,-4.1615967E-2,2.9375622E-1,-9.863014E-3,-1.692263E-2,1.2724761E-2,-6.542985E-2,-5.9365085E-3,2.5438057E-2,-2.0371018E-1,-1.1962609E-1,1.360606E-1,-2.3007672E-1,-3.1433746E-2,-2.4579298E-2,1.6186263E-2],"split_indices":[4,1,6,0,1,5,1,3,0,0,5,4,3,6,5,5,3,0,0,0,0,0,0,3,1,0,1,0,3,5,5,0,5,1,0,0,0,0,0,4,0,0,0,0,5,0,0,0,0,4,4,0,3,4,0,1,3,0,0,0,0,0,0,0,0,0,0,0,0,0,0,0,0,0,0,0,0,0,0,0,0,0,0,0,0,0,0,0,0,0,0],"split_type":[0,0,0,0,0,0,0,0,0,0,0,0,0,0,0,0,0,0,0,0,0,0,0,0,0,0,0,0,0,0,0,0,0,0,0,0,0,0,0,0,0,0,0,0,0,0,0,0,0,0,0,0,0,0,0,0,0,0,0,0,0,0,0,0,0,0,0,0,0,0,0,0,0,0,0,0,0,0,0,0,0,0,0,0,0,0,0,0,0,0,0],"sum_hessian":[6.341E3,7.2E1,6.269E3,5.9E1,1.3E1,5.38E2,5.731E3,5.6E1,3E0,5E0,8E0,5.24E2,1.4E1,4.293E3,1.438E3,4.4E1,1.2E1,2E0,1E0,4E0,1E0,3E0,5E0,4.45E2,7.9E1,1E1,4E0,9.4E1,4.199E3,1.88E2,1.25E3,5E0,3.9E1,9E0,3E0,1E0,1E0,2E0,1E0,4E0,1E0,1.43E2,3.02E2,6.9E1,1E1,1E0,9E0,2E0,2E0,8.7E1,7E0,2.163E3,2.036E3,1.09E2,7.9E1,1.2E1,1.238E3,4E0,1E0,2.7E1,1.2E1,5E0,4E0,2E0,2E0,9.9E1,4.4E1,2.76E2,2.6E1,3.5E1,3.4E1,6E0,4E0,1E0,1E0,1.8E1,6.9E1,3E0,4E0,6.94E2,1.469E3,2.2E2,1.816E3,1.03E2,6E0,4E0,7.5E1,8E0,4E0,3.02E2,9.36E2],"tree_param":{"num_deleted":"0","num_feature":"8","num_nodes":"91","size_leaf_vector":"1"}},{"base_weights":[-6.76958E-2,9.038116E0,-1.447201E-1,1.2169579E1,-1.0488985E1,-1.2996182E0,4.319493E-1,1.4099608E1,-1.21031475E1,1.462032E1,-2.8478632E1,-1.0018752E0,-8.804343E0,-1.331113E0,1.0145447E0,-2.0344247E-1,1.537375E1,-2.2136125E-1,8.997894E-2,4.8050474E-2,2.2033069E-1,-8.00736E-2,-3.1594607E-1,-1.9196968E0,1.8474027E0,-1.0144771E0,-1.6013636E1,-3.0250683E0,1.3428876E0,9.0156555E-1,1.0394847E1,2.3217056E1,7.544047E0,-5.1141257E0,-8.5415137E-1,8.975519E0,3.4136516E-1,-1.781969E1,3.743692E0,1.012469E1,-1.9031477E1,-6.0962043E0,7.8721756E-1,4.707486E0,-2.3003798E0,1.3604023E0,-1.3607962E0,1.4159937E1,-1.7286732E1,-3.5253372E-2,2.4730441E-1,1.8267871E-1,-2.110271E-2,-2.2035021E-2,-9.016883E-2,3.8545195E-2,-1.4768632E-2,1.3872187E-1,-5.2531287E-2,1.2754518E-1,-5.945382E-3,1.8430138E-2,-2.7958214E-1,1.4144936E-1,-1.6270982E-2,-1.2248349E-1,1.8780036E-1,-2.5141498E-1,-1.0004894E-1,-6.0123545E-3,-8.2450055E-2,-2.9251578E-1,1.2031338E-2,1.4422642E-1,3.1674482E-2,-7.800908E-3,-2.579985E-1,5.933844E-2,1.0717039E-2,-4.91782E-2,1.6945712E-2,6.249393E-3,2.6156327E-1,1.2090057E-1,-2.765344E-1],"categories":[],"categories_nodes":[],"categories_segments":[],"categories_sizes":[],"default_left":[0,0,0,0,0,0,0,0,0,0,0,0,0,0,0,0,0,0,0,0,0,0,0,0,0,0,0,0,0,0,0,0,0,0,0,0,0,0,0,0,0,0,0,0,0,0,0,0,0,0,0,0,0,0,0,0,0,0,0,0,0,0,0,0,0,0,0,0,0,0,0,0,0,0,0,0,0,0,0,0,0,0,0,0,0],"id":18,"left_children":[1,3,5,7,9,11,13,15,17,19,21,23,25,27,29,-1,31,-1,-1,-1,-1,-1,-1,33,35,37,39,41,43,45,47,49,51,53,55,57,59,61,63,65,67,69,71,73,75,77,79,81,83,-1,-1,-1,-1,-1,-1,-1,-1,-1,-1,-1,-1,-1,-1,-1,-1,-1,-1,-1,-1,-1,-1,-1,-1,-1,-1,-1,-1,-1,-1,-1,-1,-1,-1,-1,-1],"loss_changes":[4.5153184E3,3.4296582E3,4.2516035E3,2.372463E3,4.0300269E3,4.7416836E3,4.3749634E3,2.2437676E3,1.0460038E3,1.8516266E2,6.595117E1,5.3540996E3,4.532669E3,4.796419E3,3.3829797E3,0E0,